{"layers":[{"0":{},"1":{},"2":{},"3":{},"4":{},"5":{},"6":{},"7":{},"8":{},"9":{},"10":{},"11":{},"12":{},"13":{},"14":{},"15":{},"16":{},"17":{},"18":{},"19":{},"20":{},"21":{},"22":{},"23":{},"24":{},"25":{},"26":{},"27":{},"28":{},"29":{},"30":{},"31":{},"32":{},"33":{},"34":{},"35":{},"36":{},"37":{},"38":{},"39":{},"40":{},"41":{},"42":{},"43":{},"44":{},"45":{},"46":{},"47":{},"48":{},"49":{},"50":{},"51":{},"52":{},"53":{},"54":{},"55":{},"56":{},"57":{},"58":{},"59":{},"60":{},"61":{},"62":{},"63":{},"64":{},"65":{},"66":{},"67":{},"68":{},"69":{},"70":{},"71":{},"72":{},"73":{},"74":{},"75":{},"76":{},"77":{},"78":{},"79":{},"80":{},"81":{},"82":{},"83":{},"84":{},"85":{},"86":{},"87":{},"88":{},"89":{},"90":{},"91":{},"92":{},"93":{},"94":{},"95":{},"96":{},"97":{},"98":{},"99":{},"100":{},"101":{},"102":{},"103":{},"104":{},"105":{},"106":{},"107":{},"108":{},"109":{},"110":{},"111":{},"112":{},"113":{},"114":{},"115":{},"116":{},"117":{},"118":{},"119":{},"120":{},"121":{},"122":{},"123":{},"124":{},"125":{},"126":{},"127":{},"128":{},"129":{},"130":{},"131":{},"132":{},"133":{},"134":{},"135":{},"136":{},"137":{}},{"0":{"bias":0.1684051766981779,"weights":{"0":-0.10702358874916702,"1":-0.16261286211907824,"2":-0.012062014398404961,"3":-0.0059598558681489,"4":-0.014727954283415279,"5":0.19049086684926042,"6":-0.1390143687575967,"7":-0.18284240531055726,"8":0.053763688019554556,"9":0.0017183227267193735,"10":0.14770574570978895,"11":0.11363767925763552,"12":-0.16646412368128907,"13":-0.09382544005440385,"14":0.023981862015209465,"15":-0.19244345402203278,"16":-0.07177666052727139,"17":-0.11097550664500125,"18":-0.19833756206983655,"19":0.012418139112984145,"20":-0.09750503274937561,"21":0.18237568034394108,"22":-0.1735324079478705,"23":-0.18309331157002076,"24":0.12256579985870175,"25":0.18019963277626844,"26":0.0015234805920028849,"27":-0.028752542456243917,"28":-0.013756414764796185,"29":-0.08869903778750247,"30":-0.1769247183530848,"31":0.024460919684267484,"32":-0.1617621973144939,"33":0.052068607955708335,"34":0.17332145619589012,"35":-0.021254022254661997,"36":-0.1788442846099061,"37":-0.014477635454350685,"38":0.18289854343632012,"39":0.0648529443508652,"40":-0.12842795708689003,"41":0.006067372017445116,"42":-0.18503492911666886,"43":-0.05416073416182263,"44":-0.030370990493924055,"45":0.18576174356983516,"46":0.059743780449031725,"47":-0.16396601574229647,"48":-0.02346210480637473,"49":0.011802633522517703,"50":0.19995408710686696,"51":-0.11443294307217187,"52":-0.07086966724606558,"53":-0.021368990965491358,"54":-0.05226880401064146,"55":0.08655156854307877,"56":0.05629316282061253,"57":0.012217729032218017,"58":0.1965737144814549,"59":-0.1394094360737931,"60":0.08756129939662055,"61":-0.025351470315390923,"62":-0.017843281531936317,"63":-0.17311974654617437,"64":0.15263489313158124,"65":-0.04408289387068659,"66":0.08105541776800518,"67":0.018730445115135635,"68":-0.11073300223438559,"69":-0.02566503287109781,"70":-0.028077749529986522,"71":0.19677737861229508,"72":0.12157041819374022,"73":-0.11305963512343058,"74":0.1002776460168488,"75":0.10908285516899358,"76":0.06144143823689763,"77":-0.001892608664262857,"78":-0.19909234751581498,"79":-0.12610572294063963,"80":0.008234514398373971,"81":-0.09981140922043093,"82":-0.002400554172785896,"83":0.048315459439742886,"84":0.02748171379914649,"85":0.07862297403442342,"86":-0.011413601540292001,"87":0.10538559032727035,"88":0.03135775569239935,"89":0.029896827140430127,"90":-0.1665178740443528,"91":-0.1959043741170562,"92":-0.15708547517187404,"93":0.1612092164789134,"94":-0.04406305636177166,"95":-0.029862351958216488,"96":0.11920009710138368,"97":-0.02211785288413104,"98":-0.12004030169530831,"99":-0.12181983757307675,"100":-0.005783105195276056,"101":0.15997731154241984,"102":0.16808111671324905,"103":-0.16013298147660013,"104":-0.02078653653915641,"105":-0.023772047766125487,"106":-0.09479686142921873,"107":0.11791977817821009,"108":-0.09039798830385673,"109":-0.13370253060599085,"110":0.041342674006979496,"111":0.03370014543567129,"112":-0.19120396799236625,"113":-0.044069245659946354,"114":0.03257616799683333,"115":0.05514170825448145,"116":0.10578270302004195,"117":-0.19135243346252295,"118":-0.12817020035619892,"119":0.148367987231107,"120":-0.1070176861500702,"121":-0.01788826516945416,"122":0.06261455697915885,"123":-0.13555160242547315,"124":-0.18367803272953928,"125":-0.13420306587340392,"126":-0.11014785688843745,"127":0.10413590512145537,"128":-0.1391475015414214,"129":0.14235573761926573,"130":0.09468613496894374,"131":0.14488353668937565,"132":-0.04737559547964115,"133":0.039302047841748344,"134":0.09843499790502153,"135":0.10004343479402333,"136":-0.05557114385636927,"137":-0.005595714200025442}},"1":{"bias":-0.07822719873496217,"weights":{"0":-0.14664790502831793,"1":0.13536979118717116,"2":-0.05019430231012126,"3":0.13005296408899625,"4":0.04392634059862449,"5":0.14419561285598992,"6":-0.0470719751516179,"7":0.175595299953682,"8":0.03306837581697436,"9":-0.1514872618449175,"10":-0.0662174138904584,"11":-0.1649262131090283,"12":-0.05609447528298403,"13":-0.09154071862755427,"14":-0.08464531335233919,"15":0.08035653462324072,"16":-0.004189590641872881,"17":0.052333170616839286,"18":-0.17677341486456416,"19":-0.19551423742444848,"20":0.16439804775542283,"21":-0.006981013821738186,"22":-0.17812587323990992,"23":-0.17635781857989033,"24":0.16106796090924042,"25":0.13151316645162697,"26":-0.16252771341548417,"27":-0.014333170719133745,"28":0.05106768835231353,"29":0.05259841530580505,"30":0.03324260040511697,"31":0.16161993225990862,"32":-0.1154882834462889,"33":-0.10447206888295124,"34":0.13821991459701366,"35":-0.028298314274190967,"36":0.028177642652738394,"37":0.009773510099795601,"38":0.04316621447565225,"39":-0.021168214085185516,"40":-0.10355159173626155,"41":0.0032538783826259743,"42":-0.15982622707234803,"43":0.027561234143549385,"44":0.14691204490723236,"45":-0.05464204879879206,"46":-0.05230432090199397,"47":0.0011845840440996014,"48":0.07181851708568965,"49":-0.1838791543128184,"50":-0.1596108800951619,"51":0.008778689458843664,"52":0.15665676521535926,"53":-0.05946507504174639,"54":-0.14516439119784003,"55":-0.03994538127065522,"56":0.049954383734476415,"57":-0.18848268129377743,"58":0.10864518245877214,"59":-0.09119675037899572,"60":-0.14025080676635532,"61":0.17776823307277567,"62":-0.023184265688070027,"63":-0.1867385583740731,"64":-0.11396630398843968,"65":-0.059274348395809195,"66":-0.14659514480451438,"67":-0.14509354365041444,"68":0.03916218025044865,"69":-0.12020849097688346,"70":0.15839232514443077,"71":-0.04498659923843509,"72":-0.1543853272175513,"73":0.11621649656222942,"74":-0.17150800720828896,"75":0.19105998851736522,"76":0.09096375368073906,"77":0.12864694328277654,"78":0.10967215201396369,"79":-0.05175554235981067,"80":-0.19016991007706824,"81":-0.13433959400491657,"82":0.09891672595285,"83":0.013555386699388633,"84":0.0035981518341873797,"85":-0.01588718228893668,"86":0.028923291235705584,"87":0.19535798537261234,"88":0.1573551415142208,"89":-0.07985404033953546,"90":-0.004534964176645839,"91":0.18998051676723232,"92":0.12297309292204556,"93":0.1493297483266508,"94":-0.0798735960842265,"95":-0.00542888286136628,"96":0.01837156477922336,"97":0.13179202616439678,"98":0.18160689188167617,"99":-0.02241174273354546,"100":-0.0165038095242159,"101":0.050030045854471905,"102":0.15706427156288472,"103":-0.19777478139760227,"104":-0.04761172579747441,"105":0.0860323028719,"106":-0.11506903762937828,"107":0.08250275766892823,"108":-0.10306256964279639,"109":0.02900276137024846,"110":0.14361140638320952,"111":0.17576509271685287,"112":0.09213186900606657,"113":-0.025589520758102224,"114":-0.08703524415702057,"115":0.11585932764597395,"116":-0.05445126693584479,"117":-0.18468625359082325,"118":0.16095196012064195,"119":-0.17733656482520532,"120":0.011450498845890417,"121":0.18077537996549947,"122":0.12167429294168414,"123":-0.1877865590359229,"124":0.1941206582252134,"125":0.19030432568906275,"126":-0.03590423606182283,"127":0.02453847634328596,"128":0.14327360549708956,"129":0.1496097294871917,"130":-0.1903914468617651,"131":-0.020147767269449085,"132":0.08020347469384859,"133":0.10554330377822513,"134":-0.06315373050226,"135":0.04972035009089426,"136":-0.11538601898430301,"137":0.09051348545189636}},"2":{"bias":-0.06677460951022673,"weights":{"0":0.11456185434654452,"1":0.20188710836675633,"2":0.04236795207812174,"3":-0.17258521434445948,"4":0.04034632973482921,"5":0.0645307835052975,"6":0.020303463816686296,"7":-0.03490631477854125,"8":-0.028198349165854786,"9":0.09752799935569456,"10":-0.1186397735929913,"11":0.033038217134718106,"12":0.13755940077763168,"13":0.03598806044440844,"14":0.14470757886283014,"15":0.18651426139632543,"16":0.07277719706389718,"17":-0.08967609207094124,"18":0.1825778056036173,"19":-0.1823827925740189,"20":-0.05275102954315,"21":0.06980335105290913,"22":-0.01806756459035333,"23":0.1056168124753673,"24":0.1459413264305634,"25":0.02772533763784385,"26":-0.004560459947290513,"27":-0.14750300432781066,"28":0.19660937226902644,"29":-0.016548326083099727,"30":-0.016153812072680965,"31":0.12315049499750194,"32":0.07926661088259937,"33":-0.012863430425816003,"34":0.17266319607646102,"35":0.10989296721974345,"36":0.0016267612270614573,"37":-0.0627964310013196,"38":0.0782352015349641,"39":-0.19795200371202162,"40":-0.12945093457763257,"41":0.11230453954929692,"42":0.18622779169389175,"43":-0.05700098000585899,"44":-0.10295191268533471,"45":0.11318705442801874,"46":0.19622666659215948,"47":0.13320814987497542,"48":0.003429301593355305,"49":-0.09989121343796237,"50":-0.11061203339038324,"51":-0.19536433045269366,"52":-0.05592682631838236,"53":0.030506602893977414,"54":0.17987355064711014,"55":0.0835292124393332,"56":0.0369739543398559,"57":-0.1332693918105492,"58":-0.14413967932207267,"59":0.19651870893060108,"60":-0.09262497217283361,"61":-0.11760382317203569,"62":0.05392982800493912,"63":0.08441933291148873,"64":0.10765658236156705,"65":-0.050216428174686994,"66":0.13017220664642137,"67":-0.17066808329257974,"68":-0.14671205720667527,"69":-0.05301188476254978,"70":0.15262944734015382,"71":0.024352818149320603,"72":0.16106198754996315,"73":0.1417035330543599,"74":0.11056666068949106,"75":-0.0784069358603607,"76":-0.13020445237719092,"77":-0.1315056290749143,"78":0.0973055722737734,"79":0.19637415827968757,"80":0.035977302378260134,"81":0.0432812694566958,"82":-0.061225518509656934,"83":-0.15963948580503803,"84":-0.035552423031037506,"85":-0.056091203688716645,"86":-0.11958798095288917,"87":0.056808170358383425,"88":0.08972736796795877,"89":0.12644556657355316,"90":0.19077419705752635,"91":-0.14988508066541195,"92":0.17010239252065146,"93":0.04453478730299204,"94":-0.14452598372966988,"95":0.1076358102450718,"96":0.024948958172512997,"97":-0.05291050302933975,"98":-0.14137948918778528,"99":0.18836401940798048,"100":0.06483665511934722,"101":-0.18741181889787423,"102":-0.07740387663001941,"103":-0.005675156999029707,"104":-0.009994707845303014,"105":0.008206917550396847,"106":-0.04616934278260648,"107":-0.14967976870983835,"108":0.14528008012451082,"109":0.1958376277717943,"110":-0.11254697642165823,"111":-0.12895726848957906,"112":-0.1888622258906576,"113":-0.1616848110273475,"114":-0.07060061623331179,"115":0.1645938372248505,"116":0.02921078168979943,"117":-0.15559312290664168,"118":-0.038303129758942234,"119":0.1333257929518144,"120":-0.10454200235700634,"121":0.03480478896522171,"122":0.08256227882542505,"123":0.1256651779947774,"124":0.1673576985438605,"125":-0.1895537328478959,"126":0.13968616720208998,"127":0.02228049060104595,"128":-0.0843447423217178,"129":-0.12314519168526844,"130":0.03941484443447968,"131":-0.08658006863338726,"132":-0.10679933596304841,"133":0.09000344744486022,"134":0.1578431858751002,"135":0.0946753779687457,"136":-0.19413174071895806,"137":-0.008880343196781215}},"3":{"bias":0.13384274413303382,"weights":{"0":-0.13393416485888945,"1":0.1536187146315108,"2":-0.01958289738137243,"3":0.12471355308204962,"4":-0.04115023508689805,"5":-0.12030546013327391,"6":0.009750066020260378,"7":-0.182798971862779,"8":0.035298351570278,"9":0.07660275038246783,"10":0.12465580773578927,"11":0.14134358155178445,"12":0.18322228707586713,"13":0.124154197004754,"14":-0.07975228324341632,"15":0.09555085870347907,"16":-0.14594579636076804,"17":-0.05300111835005197,"18":0.009637174713599872,"19":0.15709892356632116,"20":-0.08521331277293812,"21":0.13352506362559796,"22":0.19646083983716361,"23":0.1266134423844224,"24":-0.0785198503661869,"25":-0.07747665970139153,"26":0.16383584252673628,"27":0.09065114359056335,"28":-0.02584949048481046,"29":-0.0694146735961219,"30":-0.06634495726527358,"31":0.0427241152990666,"32":-0.17915827893672884,"33":-0.024711894443765814,"34":0.020141016483536583,"35":-0.1086089556126594,"36":0.16623192906097622,"37":-0.10433184826777958,"38":0.048613653301311816,"39":0.16589786853374172,"40":0.009733902165757258,"41":0.14091738533992276,"42":0.08779126936941956,"43":0.029479440605847895,"44":-0.020553181406734122,"45":0.07022300026487516,"46":0.14970869299935535,"47":0.15735060170394127,"48":-0.18992067827581877,"49":-0.06039708996792745,"50":-0.020545547019163557,"51":-0.19451556493715172,"52":-0.19475867424205617,"53":-0.1783165969684374,"54":0.05497890836444147,"55":0.1753005677805491,"56":-0.13473982475263596,"57":0.1264766529063972,"58":-0.08940818873096097,"59":0.16926910763168845,"60":0.1262732426764543,"61":0.1905016917696199,"62":-0.11102634293657615,"63":-0.13345898750086488,"64":-0.18648742532896467,"65":-0.17370687453486378,"66":0.18179349075498868,"67":0.14727963923348913,"68":0.060021887486490844,"69":0.14170328064113885,"70":0.03095417568577146,"71":0.14470671636382484,"72":-0.16226702167215254,"73":0.1630950470093118,"74":0.17724196370513745,"75":-0.1898696689649615,"76":0.15341736307612186,"77":0.1368155459017219,"78":0.183904600111907,"79":0.002345595698033248,"80":-0.02212638274414927,"81":-0.11241806917226649,"82":-0.001561202874755807,"83":-0.07653646582707366,"84":0.17823315156142766,"85":-0.10111964516646915,"86":-0.16092928985237115,"87":-0.1769260242653024,"88":0.015272882220803113,"89":0.02532123726138505,"90":-0.1818656452902645,"91":-0.07450154647201535,"92":0.08047965440449412,"93":0.038737589823397034,"94":0.12892680947439938,"95":0.06639808207771525,"96":-0.08380716189060289,"97":-0.07415266452150418,"98":0.057550709777547115,"99":0.10959292871172233,"100":-0.040493475974568316,"101":-0.07990289607467532,"102":-0.08008525985535915,"103":0.15745910893809756,"104":0.1290955167787476,"105":-0.1290068510910813,"106":-0.021644779512624612,"107":0.15701971544537024,"108":0.02262619027316709,"109":0.019948620890299196,"110":0.1101283470316588,"111":-0.15338779020730275,"112":0.01989943187875634,"113":-0.10384401349922934,"114":-0.04876356390193565,"115":-0.18931348831086733,"116":0.12494587479868491,"117":-0.05034819046297365,"118":-0.08933368283140385,"119":0.03324183810552778,"120":0.06373007806457609,"121":0.037841774416624036,"122":-0.13588076922693054,"123":0.09721740932040435,"124":-0.04174081288145057,"125":-0.00363736501136272,"126":0.033561305820017207,"127":0.10213905324048173,"128":0.09600264705256711,"129":0.11189559639402241,"130":-0.17754023548457365,"131":0.005890571561449676,"132":0.03753557829546511,"133":-0.0760798336951008,"134":-0.11845958284798011,"135":-0.029344295292846573,"136":-0.041808071350970255,"137":-0.10059474446253908}},"4":{"bias":-0.16978076226639777,"weights":{"0":0.21077115630281895,"1":-0.055408235516070235,"2":0.12721024640387926,"3":-0.1794027027574588,"4":0.19379974779304032,"5":-0.06182977744040416,"6":0.1803243980943549,"7":-0.0342879623780421,"8":0.1795879588577841,"9":0.16945783627783267,"10":-0.02307875184431421,"11":-0.12286416390444606,"12":0.1557975833359806,"13":0.13520804174934203,"14":0.18751001843598847,"15":0.16403924293818078,"16":-0.03490612380879607,"17":-0.1139012206782387,"18":-0.11099106981437351,"19":-0.18479295168287113,"20":0.04223060691095509,"21":-0.03372631899866932,"22":-0.02207472869347321,"23":0.133281043237867,"24":-0.12803012012110085,"25":-0.05699529561157207,"26":-0.15398745109601278,"27":0.1986629280487636,"28":-0.1474567376562662,"29":0.05130333141304692,"30":-0.11160122872445548,"31":0.1812373890981254,"32":0.16114970594138803,"33":0.09981789340871083,"34":0.1290438203928731,"35":0.08930905895005231,"36":0.15919194279534965,"37":0.16643622985031803,"38":0.0322175763964192,"39":-0.16676575269553695,"40":-0.09767311700700586,"41":-0.0009313010487071449,"42":-0.14101845206565136,"43":-0.04704010770450068,"44":0.04172942092772969,"45":0.01886016994172915,"46":-0.010678170823291921,"47":0.067578996000901,"48":-0.004736168527605861,"49":0.1513313741362609,"50":-0.025994684561324893,"51":-0.044645743358357304,"52":0.026286581756441496,"53":0.19179550741951407,"54":0.04467116546396949,"55":0.004681319271987144,"56":0.19917283409906184,"57":0.07781690480396525,"58":0.1444669813876135,"59":-0.11013865791290822,"60":0.020390524980766156,"61":0.05037872991899245,"62":0.18636035098320297,"63":-0.16179293494653343,"64":-0.14998235838650917,"65":0.18736082537959814,"66":0.09937705575822486,"67":0.07487109219480165,"68":-0.06448859702027568,"69":-0.0967671090803921,"70":0.16466225226196446,"71":-0.10830520245615642,"72":0.008769564076097565,"73":-0.13046518230934973,"74":0.1397762397811418,"75":-0.017505110243486943,"76":0.162003268876952,"77":0.023085456993374,"78":-0.18738057016358312,"79":0.07542085532059772,"80":-0.02694905532236974,"81":0.18923279216082634,"82":-0.007281919495432276,"83":-0.08388203839297646,"84":-0.031046874532393076,"85":0.09183657624220631,"86":0.0435623724984624,"87":0.01716046721308437,"88":0.18969401600240643,"89":0.08334359125519686,"90":-0.09084884704725021,"91":-0.11866548736487373,"92":-0.14054123652923797,"93":-0.014668726283169231,"94":0.18789336345203572,"95":0.047023290974389564,"96":0.08295443993021168,"97":0.06903111746153956,"98":-0.04856542621135826,"99":-0.12134110996764545,"100":-0.19427100671396558,"101":0.15922298166058513,"102":0.00301278256166429,"103":0.12253574406354206,"104":0.03400537997303238,"105":0.16375172364086482,"106":0.1237561459913965,"107":-0.12392485821518458,"108":-0.10940642807713107,"109":-0.03877860997734758,"110":-0.15734123442439574,"111":0.19516722743286846,"112":0.10526004376003045,"113":-0.09256832472392756,"114":0.14494901507815933,"115":-0.008058840331969186,"116":-0.06363967906113813,"117":0.09856740800470254,"118":0.12370565434720543,"119":0.17642840847339303,"120":0.18292174664447458,"121":-0.09093347834533115,"122":0.19479130903991643,"123":0.08463473251186499,"124":0.020927610887353676,"125":0.1078771683474904,"126":-0.016640937809853817,"127":-0.04125069575795487,"128":0.02636806529257507,"129":0.03721883393594955,"130":-0.07306835980303558,"131":-0.12016217648762897,"132":0.02647784597299649,"133":0.061273227848518186,"134":-0.042751602260307664,"135":0.0453973710364588,"136":-0.12111934203293827,"137":0.11120870958038004}},"5":{"bias":0.01106513372151987,"weights":{"0":0.12804188383943774,"1":0.04967787553614097,"2":0.15030508560137096,"3":0.19078976965990657,"4":0.038307642588168545,"5":-0.18221723106955895,"6":0.09464267390432274,"7":0.176428568832392,"8":0.0813471069241064,"9":-0.1887930771832755,"10":-0.0043287853660336495,"11":0.16459787244887147,"12":0.11184685879449846,"13":-0.19031047060630613,"14":-0.12034411752070824,"15":-0.16338105294515037,"16":0.16204944164014573,"17":0.06892509945280595,"18":-0.09407694173567221,"19":0.009197189970270803,"20":-0.17354630565130452,"21":0.06960087457259967,"22":0.1217683413583946,"23":0.15717577242756792,"24":-0.030235024064211746,"25":-0.1576955646548905,"26":0.16826804911411186,"27":-0.057292672522600376,"28":0.0381429982943758,"29":-0.043426249996175906,"30":-0.0860183442799595,"31":-0.1002927714560443,"32":-0.19054689222327145,"33":-0.19624148587656914,"34":0.03455397564032622,"35":0.07724535849830227,"36":0.14566324844099204,"37":-0.14393939528012034,"38":0.06415884036562869,"39":0.1059500813990159,"40":0.1498077271766613,"41":0.1546261664144125,"42":-0.13196471619055794,"43":0.10592053049997813,"44":0.10113473716652094,"45":-0.054083795013014774,"46":0.052902470783142586,"47":-0.16467805827278623,"48":-0.03023443366438619,"49":-0.19767331125277493,"50":0.17978728492980894,"51":0.07125726754351158,"52":-0.11122972962905475,"53":0.15760043280085373,"54":-0.14685313882570422,"55":0.15834377610473055,"56":0.1546953497959473,"57":-0.08755513810685081,"58":-0.04040184041071351,"59":-0.19100380365506464,"60":-0.07828420127029415,"61":-0.13888694693274264,"62":-0.16227566064369345,"63":0.11272789662298299,"64":-0.13944509117122206,"65":0.1772508772026048,"66":-0.13988739844080167,"67":-0.08408085464584164,"68":0.03960759973519465,"69":-0.1714457622833674,"70":0.17209079298791358,"71":0.1745078479030422,"72":-0.012798372861849708,"73":-0.03547251794982887,"74":-0.07333276948520845,"75":0.035263715101748166,"76":-0.11694446525894452,"77":-0.12682216526098858,"78":-0.01758644700190759,"79":0.0900853834027896,"80":-0.19684833240601432,"81":-0.014856156745914895,"82":0.1447420422883508,"83":0.010902791163302089,"84":0.1543047289220401,"85":-0.1307442475922384,"86":0.12521107139894322,"87":-0.11275584393432628,"88":-0.08605906577732698,"89":-0.057518618022773,"90":0.022277374728605637,"91":-0.035263928964730434,"92":0.060450641298776364,"93":-0.15070946744826605,"94":0.026784950952330633,"95":-0.11099341701984776,"96":-0.014957776464598643,"97":0.12304861278832474,"98":-0.0664449688408392,"99":0.05892940226844867,"100":-0.1266810703950192,"101":0.19052746087561756,"102":-0.017687777843808927,"103":0.11603039764211998,"104":-0.0683930400473498,"105":0.0993212317324842,"106":0.04775625649698387,"107":0.1288433438853006,"108":-0.11355109267732387,"109":-0.018297335419222016,"110":0.0752747731412522,"111":0.031195868988416725,"112":0.12580080762406576,"113":-0.17578226211596393,"114":-0.11997212562768489,"115":-0.18757920806559084,"116":-0.19995337396609347,"117":-0.1808290040835372,"118":-0.07614132058611177,"119":-0.08342656624833343,"120":0.1678214397592065,"121":-0.0461228966024291,"122":-0.11305152131638385,"123":0.138602113503078,"124":0.12648275694909933,"125":0.15718521724066115,"126":-0.03492300277012764,"127":0.10722535767809527,"128":-0.11884156859293551,"129":0.04775289261865695,"130":-0.08304265150955566,"131":-0.09314386413247853,"132":0.06270421276813831,"133":0.07791652976712493,"134":-0.05644296799629353,"135":0.1916233266352087,"136":-0.17216408004579914,"137":0.06638587315153643}},"6":{"bias":0.0009306438792400415,"weights":{"0":0.043992968974718494,"1":-0.08263708055062367,"2":0.052106289598031,"3":0.12516496267458915,"4":-0.02628863223841113,"5":-0.09801456401552705,"6":-0.15437511394622883,"7":0.031593184516044204,"8":-0.022734927024907925,"9":-0.189399565952656,"10":0.16301635811015042,"11":0.0024426283476949584,"12":0.19567840660716912,"13":-0.15974018941510995,"14":-0.14797924447017063,"15":0.12047871065533772,"16":-0.12859613860471886,"17":-0.05406876310042802,"18":-0.13214020758326595,"19":0.1315989501336578,"20":0.18576496688435473,"21":-0.12585702919295877,"22":-0.0512059516678991,"23":-0.02786985544820525,"24":-0.14795324359207784,"25":-0.11429917687004094,"26":0.1971344552374279,"27":0.12303386943935637,"28":-0.054563872512376925,"29":-0.027976703074234242,"30":0.1952255774187188,"31":0.2003322934451868,"32":-0.09507188354135884,"33":-0.019924410906498574,"34":0.08734796009245427,"35":0.15162456597413237,"36":-0.08182343956500802,"37":0.13027207147124298,"38":0.16598550650291738,"39":-0.04803006945363561,"40":0.13115660596340578,"41":-0.18253266978018168,"42":-0.03177200522291415,"43":-0.16373962022754976,"44":-0.09594590750761026,"45":0.05745499319067077,"46":-0.12150821894074558,"47":-0.08048211221615027,"48":0.1791814048357998,"49":-0.18602182238512477,"50":0.10785680700385197,"51":0.029300816163174315,"52":0.11014747749319515,"53":0.01641971206903578,"54":0.14806938895055682,"55":0.15880983809441956,"56":0.022741339642585512,"57":0.018682246853653328,"58":0.06569120462994987,"59":-0.0737500398134052,"60":-0.02424355896542646,"61":0.13450973741978184,"62":-0.023123168750039114,"63":0.017563577611264758,"64":0.02421039189195362,"65":0.09648043071440471,"66":0.01498921646591364,"67":0.11357612666878708,"68":0.032308451757820655,"69":-0.051343694401653844,"70":0.03858946500546791,"71":-0.033079610839211085,"72":0.10480025274900441,"73":-0.04888518344752023,"74":0.13140136871224456,"75":-0.026259175494057263,"76":0.11126532819180301,"77":0.13450370444533793,"78":0.16776789797258324,"79":-0.04025581819172003,"80":0.00869378922576694,"81":-0.11334119216199944,"82":0.15927344861633908,"83":-0.1318421616601552,"84":0.042146783285496786,"85":-0.002986302759103665,"86":-0.06075436825044003,"87":-0.13992849522674336,"88":-0.13307131037795922,"89":-0.15273580200930673,"90":0.1753413690675908,"91":-0.13208791375794507,"92":-0.10927500697033343,"93":-0.020976966296426702,"94":-0.19211707856363613,"95":0.06638726681970236,"96":0.017932683748460576,"97":-0.18572036464920513,"98":0.0038690097984898364,"99":0.15822231286788002,"100":-0.13340763951471626,"101":-0.13271651744732893,"102":-0.1886885032216995,"103":-0.05985233904633516,"104":-0.013114415035139076,"105":0.06935388657651853,"106":0.06467483882919672,"107":-0.03605105586524174,"108":0.09175429730996792,"109":0.15115635665555438,"110":0.08228023948437657,"111":-0.17259534130412418,"112":0.12261154878864405,"113":0.03792328302245984,"114":0.11253390429194676,"115":0.0028329654139619964,"116":-0.15947162646440055,"117":0.16212740900013473,"118":-0.1533491761280087,"119":-0.06595998430901356,"120":-0.017480402241015713,"121":0.057305931539263,"122":0.15224664462397586,"123":-0.19662050074162415,"124":0.08554341585701347,"125":0.09893670370244384,"126":-0.19172673195228454,"127":-0.1571612791486995,"128":-0.14024482043055927,"129":0.03597938754311647,"130":0.0615485037237507,"131":0.04555060774380548,"132":0.042856055657193,"133":0.04826768021582817,"134":-0.17465005078461254,"135":-0.06869797199891092,"136":0.03614955663891123,"137":0.15905380933959384}},"7":{"bias":0.18065271411776415,"weights":{"0":0.1349721088827824,"1":0.11639912137993594,"2":-0.023466854847082094,"3":0.13038764451422685,"4":-0.18879466823441504,"5":0.15509187285770126,"6":0.03563902838373362,"7":-0.1631134195480935,"8":0.1356831002143563,"9":0.10167541528748231,"10":0.015502637020995275,"11":-0.07826826423857645,"12":-0.19705973768000834,"13":-0.09078099911233846,"14":-0.0753492620121321,"15":-0.14505505480192424,"16":0.13143615669052766,"17":-0.1617219222212663,"18":-0.017951842401718043,"19":0.1588122090936374,"20":-0.03533320484574548,"21":-0.028950169364719253,"22":-0.12374817306600888,"23":0.1458426552010919,"24":-0.05471610646451905,"25":-0.14009346267757072,"26":-0.163232496279569,"27":0.18490779184947978,"28":-0.06346402551712192,"29":-0.12803858545328808,"30":0.04447027180791467,"31":0.057903042083311804,"32":0.15838596209855574,"33":-0.14749441640136843,"34":0.1317803701625847,"35":0.11369676924889377,"36":-0.19672444053195337,"37":0.003945099121643814,"38":-0.04616069283121513,"39":-0.1324970976015704,"40":-0.013118769944510167,"41":-0.11645207255651036,"42":-0.13263409016736416,"43":0.0013700273354016745,"44":0.030798137446945872,"45":-0.08291846652620977,"46":0.08241691499216108,"47":-0.03131899698189766,"48":0.11683358767639423,"49":-0.15565260574785747,"50":-0.05893902973170517,"51":0.11169480350242944,"52":-0.1353717438979617,"53":-0.057160059270178726,"54":0.1406624125619575,"55":-0.15683377412295663,"56":-0.11838311044837663,"57":-0.13645753539549493,"58":0.19789819472594994,"59":0.14542717705870034,"60":-0.09043474681327962,"61":-0.1550482360568137,"62":-0.10730824763229077,"63":0.0782969958080374,"64":-0.19583125453608075,"65":-0.12640905972601635,"66":0.12403629818507433,"67":0.10632444387284218,"68":-0.17064012989356084,"69":-0.03897542590489608,"70":-0.16913039020335185,"71":-0.060995277105732895,"72":0.018497902983883662,"73":-0.17467675138696767,"74":0.1915079779275845,"75":0.18728256074532734,"76":0.1485371073195001,"77":-0.1457149380716336,"78":0.1305126463968514,"79":-0.10114819123080131,"80":-0.027006461329587145,"81":-0.07394014069150182,"82":0.0038825803771607714,"83":-0.1898673456321931,"84":-0.14010279736655118,"85":0.13130377392895282,"86":-0.13100974489192643,"87":0.1770924057159961,"88":0.012437158356681632,"89":0.19070903664683686,"90":0.13006256144275924,"91":-0.024630312953489858,"92":-0.09933735655392839,"93":0.09246459503934001,"94":-0.009980250037603777,"95":-0.0943673367130134,"96":0.10986576555722644,"97":-0.11066408781393422,"98":-0.02230668046349099,"99":0.17195020491652885,"100":0.16493937782878593,"101":-0.029735829909864453,"102":-0.13347371382607315,"103":-0.15035898485998694,"104":0.1563336889977066,"105":0.021476426403242682,"106":-0.15228149700690097,"107":0.03150521381446128,"108":0.19665005343744107,"109":-0.01629624776587324,"110":-0.17497598761393285,"111":-0.08196351910229645,"112":0.010595574018850945,"113":-0.004139197040918863,"114":0.08664275417821382,"115":0.17899135262260685,"116":-0.04011966271278372,"117":-0.11729620795756386,"118":-0.009214364795578855,"119":-0.0013935213233694788,"120":-0.03055469487816556,"121":-0.0951352157508496,"122":-0.002843813667679551,"123":0.0788018006677006,"124":-0.07971103593326855,"125":-0.08202376019838953,"126":-0.057952874829313855,"127":0.17031306676321734,"128":-0.11918829129803328,"129":-0.13329468052798027,"130":-0.09450362863980377,"131":-0.18251781143840962,"132":-0.17963000878069313,"133":0.05154874519006836,"134":-0.012762697010490764,"135":-0.16442743567544388,"136":0.11819691119980841,"137":-0.03521128473749799}},"8":{"bias":-0.11868074532606952,"weights":{"0":-0.009898027830069732,"1":-0.03140361623595343,"2":0.12924356180234414,"3":0.06684058744395438,"4":0.18926445490255928,"5":0.09424331004082082,"6":0.1638403376100474,"7":0.13709347984034698,"8":-0.1697485503908709,"9":-0.04550181182585494,"10":0.08697993048054098,"11":0.11191035268760274,"12":0.17578156584546223,"13":-0.19501467757374008,"14":-0.13174558080512638,"15":0.06818540044709537,"16":0.16269132528331626,"17":-0.19656890729699417,"18":-0.13445687614469115,"19":0.15603989394725953,"20":0.12212800051151945,"21":0.1439527003776071,"22":0.1993914117509597,"23":-0.1762748198264973,"24":0.06545397114741325,"25":0.10321915317127345,"26":0.09618665591864667,"27":-0.11591017863936362,"28":-0.19666563832598916,"29":0.08198710108124282,"30":0.12712004249938558,"31":0.10660489887607447,"32":-0.10883432592740885,"33":0.18869125905757045,"34":-0.19742099040434466,"35":-0.03825637807688623,"36":-0.1606566805031335,"37":0.03412961325329028,"38":-0.060445410288447576,"39":0.08225517149659056,"40":0.050920689459564294,"41":0.18762958920396056,"42":0.14273269222256035,"43":0.12237655362414696,"44":0.15787038400270292,"45":0.012904707255465026,"46":-0.07141922322366973,"47":-0.002840486936038472,"48":0.11417423782268071,"49":-0.1098997701421391,"50":0.11835110922290831,"51":0.056364694065019205,"52":0.1262866494184997,"53":-0.14330602038581058,"54":0.01592995136950978,"55":-0.01718578610838159,"56":-0.04481088019669591,"57":-0.10224514197704267,"58":0.14176359209109662,"59":0.11623211154855478,"60":-0.044894911222473605,"61":0.12894295341352685,"62":0.1147865454077226,"63":-0.08135979966049654,"64":-0.02717786181715312,"65":-0.12732706812076344,"66":-0.1787841517580148,"67":-0.030152388392559182,"68":-0.007145838267337723,"69":-0.1652042848278108,"70":-0.036253873259462124,"71":0.17833555581335042,"72":-0.151191347846604,"73":-0.10657795399291096,"74":0.06568965733330412,"75":0.18830087366807735,"76":0.18162895543456692,"77":-0.12390514297685318,"78":0.015532746979034145,"79":-0.02462659631207123,"80":-0.0683253360745611,"81":0.03546480759191831,"82":0.12800972831554402,"83":-0.13468901162077024,"84":-0.04490356046969843,"85":-0.14935255464028094,"86":-0.05608331541045572,"87":0.002356256430705722,"88":0.049207711934026926,"89":-0.189785631416673,"90":-0.17487310091429933,"91":-0.14850469803634941,"92":-0.1878851998154601,"93":0.1840148418088245,"94":-0.12185925098384054,"95":0.14658702008651575,"96":0.05168408248144696,"97":0.05169221799553059,"98":0.10922777587638033,"99":-0.10006970860675635,"100":0.10425578187737611,"101":-0.11597753644642035,"102":0.1978537810500578,"103":0.07448554466814983,"104":0.022723394892559423,"105":-0.06992485782371533,"106":-0.05446032694708372,"107":-0.16883840346807777,"108":0.05999955948692087,"109":-0.04280113246382883,"110":-0.018169413230114367,"111":0.07345958188092139,"112":0.019975892235154113,"113":0.16383962793596635,"114":-0.013788123334976449,"115":0.02204809247405573,"116":0.10850506656411751,"117":-0.11851878261949783,"118":0.19622276088414287,"119":0.0038045533324683467,"120":0.08708094406330658,"121":0.1006498593974201,"122":-0.13469937348240518,"123":0.1678551438143036,"124":0.13922085022023228,"125":0.11708888373673787,"126":0.11960643086110068,"127":-0.013278029124798418,"128":0.18974235966940123,"129":-0.0647724114507641,"130":-0.02275337401936267,"131":0.18494530336379933,"132":-0.14764488379139742,"133":0.009882994924167582,"134":-0.18152731426464896,"135":-0.1639813631864323,"136":0.13444498842671582,"137":-0.01715236869894393}},"9":{"bias":-0.1338400762701585,"weights":{"0":0.15737331249062458,"1":0.19674438654027382,"2":-0.17204820959506528,"3":0.11123248444717088,"4":-0.03397908618838957,"5":-0.13816506800626005,"6":0.1364691310205985,"7":0.051786897483726446,"8":-0.17893370372365194,"9":-0.16987879963890437,"10":0.04304831213757554,"11":0.018790340775256015,"12":0.19930581728428226,"13":-0.02365622396685038,"14":-0.10693603871618747,"15":-0.10955214826938137,"16":-0.09783803209354165,"17":0.13126691301096322,"18":-0.130149675558567,"19":-0.020792095357849316,"20":-0.19784263355904194,"21":-0.04693802890877388,"22":0.18518325935692131,"23":0.19046088975544706,"24":-0.14570917624849786,"25":-0.00042139647758113186,"26":-0.16684544812787527,"27":-0.16708809451705045,"28":0.20199657174767888,"29":-0.11982279300493988,"30":0.0800936056227618,"31":0.08063117709912093,"32":-0.06348392000973704,"33":0.12257450410240811,"34":0.17861825669866305,"35":0.06371158968117863,"36":-0.13729631362801537,"37":-0.053672009119188235,"38":-0.19260479421714624,"39":0.16511267689445575,"40":-0.12409549442943285,"41":-0.09510369256351475,"42":0.1197496297158211,"43":-0.09880238682829834,"44":0.10651513586113898,"45":0.11591311848265562,"46":-0.1860525596131657,"47":0.04279202792786138,"48":0.12903808324248045,"49":-0.186303923177233,"50":0.000707372265375289,"51":0.0061834776619310305,"52":0.08346563311935118,"53":0.1105101508971566,"54":0.018798517246108926,"55":-0.13728068473551291,"56":0.14914418513073546,"57":0.05575589884851534,"58":0.0013360988145429131,"59":0.0486449833981025,"60":-0.09958628917927248,"61":0.049028206691258625,"62":0.08951322523356053,"63":0.058425785397036356,"64":0.05527342768202004,"65":-0.07337025726420165,"66":0.10241714925167805,"67":0.1050295910895298,"68":0.1469250492567512,"69":-0.006289369397725064,"70":0.15030909026174982,"71":-0.04028982675784946,"72":0.1845426392375205,"73":0.07432452902939529,"74":0.134718042539003,"75":-0.11617507802569699,"76":0.0792045051793856,"77":-0.16719109550915584,"78":-0.07068819177146529,"79":0.12841880465220934,"80":0.05316974545842568,"81":-0.005591888385375027,"82":-0.051467298098125086,"83":-0.04590485151465079,"84":0.06323001998398797,"85":-0.09242124550851818,"86":-0.008447379278829187,"87":-0.01857882316811202,"88":0.048034495135824085,"89":0.021888846389908068,"90":-0.07254554686955705,"91":-0.15132338879977025,"92":0.1807283471882976,"93":-0.02668655249749427,"94":-0.15452936280708007,"95":0.1284963666359441,"96":-0.007850432141704028,"97":-0.13871207227729895,"98":0.1481524560768554,"99":-0.1818800604955496,"100":-0.1772808546324406,"101":-0.05616962756794433,"102":-0.19669325010625177,"103":0.027178957744806803,"104":-0.029838746469077304,"105":0.007986055419115706,"106":0.0674074929350339,"107":-0.0833809501427174,"108":-0.14947955506036037,"109":0.17379298858509395,"110":0.04489337477876826,"111":-0.11818053954286026,"112":0.12857402445025318,"113":-0.19853042998431888,"114":-0.05887518730226457,"115":-0.07650595423069939,"116":0.1482008440004653,"117":0.11641010276617703,"118":0.06823297862619215,"119":0.011393626807742502,"120":0.16189153345121693,"121":-0.15353463939145826,"122":-0.15720476638997471,"123":0.0230222558769973,"124":-0.06154785960672848,"125":-0.09606721638811982,"126":0.1112547462255763,"127":0.09107576545298368,"128":-0.09396800092572857,"129":-0.1996134059011123,"130":-0.1582171621654599,"131":-0.1809215634423289,"132":-0.09336397386889912,"133":0.08430435568467526,"134":-0.14703956030832518,"135":-0.16803542924228038,"136":0.0666497802527487,"137":0.07584546125283315}},"10":{"bias":0.12019767785064964,"weights":{"0":-0.05794424075437924,"1":0.13985990239724252,"2":0.07134755762203997,"3":0.07262929827486742,"4":0.16306772565898797,"5":0.07783258401490628,"6":0.12536244421689569,"7":-0.13873476686856742,"8":0.016724119078886268,"9":-0.14724029168376865,"10":0.15827121437146296,"11":0.01888092598735769,"12":0.001997523734240586,"13":0.07023574303929425,"14":0.16315803122548184,"15":0.030895035493065492,"16":-0.11692230872382164,"17":-0.005066477111481671,"18":-0.1488878803825597,"19":-0.030629337974149795,"20":-0.07842772212840332,"21":-0.010389885561325668,"22":0.024479084731354128,"23":-0.01696640677807154,"24":-0.07787327882344988,"25":0.19728867383156795,"26":0.02263541622297982,"27":-0.12794184526125146,"28":0.05708658370774005,"29":0.003954561672826591,"30":-0.06950354524169787,"31":0.1594255681595464,"32":0.04776669089034518,"33":-0.05661336806440609,"34":0.18996332939508748,"35":0.15278528897151578,"36":0.11668757820226022,"37":0.107443122889394,"38":-0.06730922985048657,"39":0.024908827771675746,"40":0.034759408600230746,"41":0.16905221415605942,"42":0.026145351074797152,"43":0.14581295185145765,"44":0.15945544865402284,"45":0.08334251253557745,"46":0.09977202595798335,"47":-0.05924629364698078,"48":0.1484640613326878,"49":0.16335737130439343,"50":0.11352678545002315,"51":0.08990570929127334,"52":0.13792901650833073,"53":0.09526595449196795,"54":0.1596504695060874,"55":-0.022959291145146554,"56":0.1110215166045398,"57":-0.08197474076928667,"58":0.18295920188991338,"59":-0.06681235518849996,"60":0.12172157544832068,"61":0.06561544853840645,"62":-0.09510828941155945,"63":-0.17345936450948995,"64":0.07167749943283647,"65":0.11604074009741228,"66":0.13380745551687906,"67":0.058078127079366215,"68":-0.1707304829882836,"69":0.022251540271824854,"70":0.027212702902934302,"71":0.14076556967101142,"72":-0.08428869703569768,"73":0.05490542111872992,"74":0.17769600701055,"75":-0.10782832783548901,"76":0.0036732314319797565,"77":0.030240282354982384,"78":-0.12277813556377178,"79":-0.09148351675672428,"80":-0.06083520763736791,"81":-0.07659176634736237,"82":-0.06234129143089229,"83":-0.13623126433118776,"84":-0.08358509151453833,"85":0.06719534610719213,"86":-0.174969025496309,"87":-0.15252508408437793,"88":0.005537380367887146,"89":-0.03832850415696906,"90":-0.11455483662689803,"91":-0.08752318817025406,"92":0.1249127270802683,"93":-0.17583081853646637,"94":0.06865880991422746,"95":0.16097150778227437,"96":-0.028088829164702567,"97":-0.01422024000485217,"98":0.19077821166472847,"99":0.02620224713947153,"100":-0.02182602183706095,"101":-0.11837576340653007,"102":0.01921545495652674,"103":-0.08048738709599751,"104":-0.12573603756618548,"105":-0.043380279942428046,"106":-0.04786113838650427,"107":-0.023650957869866124,"108":0.01819765556248748,"109":0.14369348642723967,"110":0.04313222995456051,"111":-0.11791899151617811,"112":-0.037637672938483385,"113":0.18161648527660662,"114":0.16815816770400832,"115":-0.19557518924866812,"116":-0.15537366989420429,"117":-0.15471749317830563,"118":-0.017891290413884597,"119":0.1707092915467618,"120":-0.0751220654376688,"121":0.1636358018099509,"122":0.14872881966077872,"123":-0.08388488672664583,"124":0.09924358405847594,"125":-0.09895519262932773,"126":-0.04355706726131148,"127":-0.17609723671766497,"128":0.1673616297937196,"129":-0.175710429292596,"130":-0.012806376714934231,"131":0.15424911862686103,"132":-0.0350689411790433,"133":0.054395727976947916,"134":-0.10723671846104949,"135":-0.11013962564041853,"136":0.16270715715234635,"137":0.083282757544963}},"11":{"bias":-0.19952400603780357,"weights":{"0":0.07203294293940174,"1":0.09602204943258938,"2":0.16078451742067,"3":-0.13756184581686065,"4":0.0652126473574558,"5":0.054728466943006204,"6":0.11376140666657192,"7":-0.05286181881145735,"8":-0.014223533955255968,"9":0.13517986520942554,"10":0.06303786812546769,"11":0.061070303122600034,"12":0.10669765658422387,"13":-0.0005017329676423599,"14":0.17785095133219864,"15":0.005346114035990196,"16":-0.09713638175782986,"17":-0.19912508653721775,"18":0.05675044623225983,"19":0.08280415288597726,"20":0.1728619467144002,"21":-0.17032562113903157,"22":0.011367720603704445,"23":-0.011919975074024147,"24":-0.09957815739235505,"25":0.1734026112569499,"26":-0.18215739020717045,"27":-0.10609481464926446,"28":0.029995200419721327,"29":-0.07266856044348531,"30":-0.08599017259748659,"31":0.13345834864039738,"32":-0.01402093800075983,"33":0.07661604516649001,"34":0.15808571240617458,"35":0.1258377593717233,"36":-0.04855278037300481,"37":-0.13552026030755748,"38":0.16553936586458357,"39":-0.1668029445332561,"40":-0.01129324204248866,"41":0.07713435491402176,"42":-0.09077601762230457,"43":0.11773816246666557,"44":-0.16748225375500675,"45":0.11571366707655822,"46":0.08521909582705212,"47":0.029976983402144525,"48":0.11133122097675247,"49":-0.028184254370143685,"50":-0.0061860586451934485,"51":0.1493265300732251,"52":-0.13676942542017656,"53":-0.18547841369264548,"54":-0.16013056246052929,"55":-0.09406482929694455,"56":0.08526913774714612,"57":-0.18280946726398437,"58":0.060706081778150456,"59":0.013201901084929968,"60":0.10419474363082398,"61":0.16132327678923536,"62":0.05599482042785464,"63":0.042830203726185345,"64":0.0985333109396479,"65":-0.08316922556980302,"66":0.12569090154533974,"67":-0.0006359620260532606,"68":0.12458694983925539,"69":0.18785728178281075,"70":0.022156766462613837,"71":-0.0089930759145749,"72":0.09993518522079778,"73":-0.04328787473610964,"74":0.06617827315414743,"75":0.15565726993435797,"76":0.045799607447801705,"77":0.072159197363378,"78":-0.14761156821187235,"79":-0.08153448605569338,"80":0.06803867855367624,"81":-0.033708383239791306,"82":0.1877467746165502,"83":-0.05329073323183478,"84":0.16193449593664638,"85":-0.18151485704881232,"86":0.02655194928258639,"87":-0.12251112664964525,"88":-0.0457669863418558,"89":0.06806137390580186,"90":0.16395677901698535,"91":-0.15287670264968273,"92":0.05677197275446855,"93":-0.0984920647319254,"94":-0.18470866469049618,"95":0.1966859681013583,"96":0.15851011608437027,"97":-0.13238614704522178,"98":0.02776012207949946,"99":0.14514488727773323,"100":0.019913208849908687,"101":0.043156145075698316,"102":-0.12982029249839816,"103":-0.005067005801553837,"104":0.11621224919263018,"105":0.16530954312727292,"106":-0.1917471001310708,"107":0.03244869682431037,"108":-0.08824307036621529,"109":0.1866436132941237,"110":-0.012699563706248446,"111":-0.04347333291131275,"112":-0.04500385766442577,"113":-0.11361125736217198,"114":0.16073851792422406,"115":-0.19343389562095217,"116":-0.08231650174814407,"117":0.07556043446938371,"118":-0.15543869660271686,"119":0.10783256985096018,"120":0.12254358031449775,"121":-0.12360943729039953,"122":0.19340273956667692,"123":0.06731940016738464,"124":-0.008036433187801617,"125":-0.03713873218140745,"126":-0.13021589448755658,"127":0.07034206272249699,"128":-0.023721984455981893,"129":0.04678940925212771,"130":0.19731825101338057,"131":-0.08073508983227368,"132":-0.01717843575212452,"133":0.08275629643556337,"134":0.117441358890707,"135":-0.14704055580744912,"136":0.058703162100547324,"137":0.035455147114280716}},"12":{"bias":0.032095688350876415,"weights":{"0":-0.04820421476481793,"1":0.17343948075644666,"2":0.18082120138808516,"3":0.14637142039248918,"4":0.1895768237459598,"5":0.10717565018702518,"6":0.06479049266446169,"7":-0.13569648942622461,"8":-0.1588322812496494,"9":-0.059945662511405734,"10":0.0024372477712690244,"11":-0.13740148429231916,"12":-0.09980787722045639,"13":0.16066649892584683,"14":-0.15116374540970476,"15":0.08131067838152184,"16":-0.15420620277825847,"17":0.11904294882410332,"18":-0.1414516676858705,"19":0.042570317416076614,"20":0.1165006811353968,"21":0.1396714999223826,"22":0.01762969358863381,"23":0.10993385765812302,"24":-0.021617736716723096,"25":0.046300032874186575,"26":0.11084774183837925,"27":0.1377074603517439,"28":0.030741188224119427,"29":-0.15308930816240837,"30":-0.19428781505587858,"31":0.12412161605612716,"32":0.19627256791423173,"33":-0.16080131080082147,"34":0.03607089496458943,"35":0.1693455427621306,"36":0.08408725858950855,"37":0.14088928508039428,"38":0.0767768701614659,"39":0.06535973969893938,"40":-0.09103486254148639,"41":-0.1555153140268052,"42":-0.04244953754118752,"43":-0.08496875831513889,"44":-0.13698567164294967,"45":0.04151660765825421,"46":-0.17877771369015047,"47":0.06108335707967194,"48":0.0786143890463441,"49":0.1763757291447255,"50":0.1643113708090601,"51":-0.023478723230677623,"52":0.15508049277352026,"53":-0.1618553477520636,"54":-0.041513544622913845,"55":0.15093323785106688,"56":-0.12086228026231041,"57":0.10977509635390659,"58":0.11954027196575306,"59":0.08132418056474966,"60":-0.03431522667781514,"61":-0.15860019987941876,"62":0.1939170095363525,"63":0.09315133655329311,"64":0.03944347547771354,"65":0.010312944960229331,"66":0.026660600789905425,"67":0.027381300187551083,"68":0.04655912086668268,"69":-0.15372204379094534,"70":0.18874333388385822,"71":0.013306880701154308,"72":-0.11868041652727113,"73":0.022720815787575302,"74":0.12829725694191413,"75":0.003701533434195964,"76":-0.036607535305055006,"77":0.16060633692043974,"78":-0.05869208023718517,"79":-0.029345698818579458,"80":0.08604828738013015,"81":0.047004180219530955,"82":-0.18371054575808943,"83":0.11963465859261985,"84":0.1706121892534373,"85":-0.05856746479841704,"86":-0.09962350445041723,"87":-0.02432325189569759,"88":-0.12563605288579485,"89":0.10851516819649848,"90":0.029137373424603485,"91":0.06828321876612459,"92":-0.13259278134447552,"93":-0.13787072376344975,"94":0.13911990507889493,"95":-0.06315658535218391,"96":-0.10978190955354102,"97":0.10458049256894508,"98":-0.1306148346837534,"99":0.11585774973217389,"100":0.08551383444279975,"101":-0.08435635133534386,"102":-0.051249429513779005,"103":-0.06680091512772518,"104":0.04401167230483055,"105":-0.01755333882011581,"106":-0.12308384363841825,"107":-0.015674460151899966,"108":-0.12388663695538567,"109":-0.11268298533879939,"110":0.01897952739134451,"111":-0.00809174130737364,"112":0.164473962821387,"113":-0.08122659323090141,"114":-0.05020504437368159,"115":-0.10783576561459834,"116":-0.17703720148624777,"117":0.05239476804410276,"118":0.19840610106173967,"119":0.09322245752061253,"120":-0.06467450238617972,"121":-0.19101426541138516,"122":-0.029178226691393055,"123":0.1895792673306677,"124":-0.04813207867520272,"125":-0.19700276203945882,"126":-0.03202551209283841,"127":0.13334297909745468,"128":0.10846112386146523,"129":-0.1440011347502166,"130":-0.12049356920145558,"131":-0.09173816615106772,"132":-0.19248218140789908,"133":-0.129948399226597,"134":-0.18522105839046762,"135":-0.1418663584594392,"136":0.06822851089598697,"137":-0.03467572315676906}},"13":{"bias":-0.04868041204971486,"weights":{"0":0.20190070299537966,"1":0.13706026921251646,"2":0.058175882113257874,"3":0.17050066546345805,"4":0.15436206107080752,"5":-0.09747540084248502,"6":-0.14250222283943303,"7":0.05475264775340394,"8":-0.14724270979893905,"9":0.14544262191569673,"10":-0.015545330956478143,"11":0.0878882835703389,"12":0.13389427010808957,"13":-0.0056621846479003035,"14":0.1873188340956906,"15":0.1239264409995644,"16":-0.06125914992635684,"17":-0.1880960705742889,"18":-0.0861070825858481,"19":0.09980723858754886,"20":-0.12761160042517367,"21":0.038747941434634725,"22":-0.03978471714167792,"23":0.022350514171663782,"24":-0.06727544294417101,"25":0.05524143559854833,"26":-0.022719423733185,"27":0.17839380980304417,"28":0.16893771456153464,"29":-0.10118906608102568,"30":0.20763795464192056,"31":0.18989567818506878,"32":0.2070145251844622,"33":-0.04640003777705343,"34":0.1648314224466324,"35":-0.015479275874800719,"36":-0.17836668408172474,"37":-0.13577990244842536,"38":-0.08836359183924021,"39":0.11771722656012557,"40":-0.026857256516626654,"41":0.10205014372767957,"42":-0.07013373458675193,"43":0.10659577097158429,"44":0.18166492195649414,"45":-0.14983901681953082,"46":0.07622655444824061,"47":0.18257144421599653,"48":-0.1762496820128508,"49":-0.04258429648280143,"50":-0.15827185248151868,"51":-0.057201022862807455,"52":-0.07515601235581792,"53":0.09722756438664099,"54":-0.14045721145710283,"55":0.06716171522126835,"56":-0.04545708331964421,"57":-0.1480005585795402,"58":0.06413420911632184,"59":0.09011565867314592,"60":-0.04918330532540302,"61":0.11135612097579284,"62":0.07601977745579563,"63":-0.09552753335141323,"64":0.1742402860981062,"65":-0.06931370014780214,"66":0.006863552591195976,"67":0.1278773015477137,"68":-0.14924444991648925,"69":-0.06524796615087913,"70":0.04702423764047152,"71":0.009800179249112964,"72":-0.09470357351642773,"73":0.14268125852136015,"74":-0.11074535139066627,"75":-0.19542074953296115,"76":-0.008404574423968997,"77":0.02863178027967911,"78":-0.004564459425239781,"79":-0.1592077413999131,"80":-0.03693061949439028,"81":-0.15374307860647313,"82":-0.16911838571094562,"83":0.04178407864386663,"84":-0.12250533962782253,"85":-0.1119051993352918,"86":0.1494168805081567,"87":-0.06982091393285367,"88":-0.04774342030673023,"89":0.05383067879210346,"90":0.1299155544456933,"91":-0.11830921216547603,"92":0.05080877582087362,"93":0.09345024545637165,"94":0.09754679820822726,"95":0.015083100761625445,"96":0.07277818398833213,"97":-0.10554327741027453,"98":-0.13710275129417226,"99":0.1663260453181808,"100":0.02156649501644453,"101":0.13985098396501822,"102":-0.12495698858060181,"103":-0.05763493908812861,"104":0.19369026179432652,"105":0.1515451789360448,"106":-0.025244441791189315,"107":-0.19811279010434912,"108":0.10066303265258414,"109":0.04866953523821421,"110":-0.1698413803403475,"111":0.11070783517022209,"112":-0.18857697533135254,"113":0.19902106419665316,"114":0.1988857251401016,"115":0.051801128266650676,"116":-0.02806172573105964,"117":0.09026652358779447,"118":-0.10721940640152204,"119":-0.1977086298829338,"120":0.10181722703076374,"121":-0.020783817009468825,"122":0.1933336624927588,"123":0.15550869259367345,"124":-0.0692425944688406,"125":0.1951050070297119,"126":0.09852318543724436,"127":0.05576825750365255,"128":0.0634054041566629,"129":0.06774190762065457,"130":-0.04858743470996876,"131":0.019135814077755692,"132":0.1040939160124627,"133":-0.19958895855315648,"134":0.10847928347666314,"135":0.04176567495255129,"136":0.11704101470657918,"137":-0.1233644957511185}},"14":{"bias":0.04098363418640591,"weights":{"0":-0.1139308725599201,"1":-0.1431040526199457,"2":-0.09470339037134937,"3":-0.14588122445070245,"4":0.0539657447622387,"5":-0.17440588875825444,"6":-0.09732169867488105,"7":-0.09907441482939934,"8":-0.1476861063792157,"9":0.0871237708951445,"10":-0.10190380005975452,"11":0.19029362608241301,"12":-0.10997812710766147,"13":-0.010043848871334943,"14":0.045444328061949424,"15":0.11807830858586271,"16":0.1651270230529715,"17":0.14515393969092222,"18":-0.1573470042849115,"19":-0.09913935702352977,"20":-0.174735422108275,"21":0.0024563890769874475,"22":-0.151052412066241,"23":0.12092170900436888,"24":-0.15234468334393717,"25":-0.18012865753907115,"26":0.08814933596098895,"27":0.09347150770571869,"28":-0.072551036167852,"29":-0.07190379869402375,"30":0.1783448929639155,"31":0.03199003988792191,"32":-0.1340152320814629,"33":0.03134384287690084,"34":-0.06639254958646248,"35":0.07648481469149171,"36":0.15924327739059513,"37":-0.0712954463711486,"38":0.012347749749914622,"39":0.07833468795913445,"40":0.11114080512937613,"41":-0.17784971128247193,"42":0.17967908286597983,"43":-0.011918893964756011,"44":0.18853404908180965,"45":-0.13231175874206827,"46":0.03376848282103051,"47":-0.18570434605909647,"48":-0.17081581908418908,"49":-0.0011268838765174927,"50":0.016391368404272383,"51":-0.011274411615838531,"52":0.0032297339881561804,"53":0.11067057885098802,"54":-0.12041716289961563,"55":0.0979078918067236,"56":0.01537170473587901,"57":-0.03189833752729934,"58":-0.14786358962728077,"59":-0.09013402734235365,"60":0.07276188808690504,"61":-0.12739714551729897,"62":0.08684449907691594,"63":0.09478560327711383,"64":-0.04630113319846335,"65":0.1828676305815442,"66":0.1605864856015411,"67":0.06809669613776181,"68":-0.08801095278885392,"69":0.05275383118141813,"70":0.1804741278545342,"71":0.011175842016365938,"72":-0.15017232000599015,"73":0.16048637369153101,"74":0.05582442981173197,"75":0.17314206274933658,"76":-0.18844164616442471,"77":-0.1522349823408609,"78":-0.092551061440071,"79":0.009672267155019287,"80":-0.1689406298730269,"81":-0.04571288707951862,"82":0.03249765501938545,"83":0.07144425035346569,"84":-0.08846544269282869,"85":-0.05222841563600422,"86":-0.07209724137171289,"87":-0.006218882475934079,"88":-0.09931883976555822,"89":-0.1394338424636363,"90":0.16882987181806586,"91":-0.022785369504773806,"92":0.012108993747536878,"93":-0.17702879944794755,"94":-0.028192336418945196,"95":0.041002924841489985,"96":-0.151490930146585,"97":0.14111529913862236,"98":0.19980605706719923,"99":-0.08572030771047451,"100":0.15046300026771603,"101":0.04063401224220273,"102":0.049150320230821276,"103":0.05217350333156234,"104":0.054186136772876314,"105":0.07144849640856388,"106":-0.16338052976040124,"107":0.17758319440886522,"108":0.07432807815948372,"109":-0.14499407608710024,"110":-0.12321847812850378,"111":-0.10504856526077831,"112":-0.10374535210092972,"113":-0.039871901841994545,"114":-0.1541558272899849,"115":-0.18271267797082125,"116":-0.19775991023214604,"117":0.1119135462027065,"118":0.05588932591310425,"119":0.027157958252613856,"120":0.15949564093316537,"121":-0.13425817934130457,"122":0.09165750530678879,"123":-0.17123811327169458,"124":-0.14838542780656622,"125":0.05548140632485615,"126":-0.0585993446183303,"127":0.10540152988606827,"128":0.057251515058434066,"129":-0.19705704934306434,"130":-0.07820529560259813,"131":0.009214313622783632,"132":0.11181704782231894,"133":-0.06269302464520649,"134":-0.13300869032498408,"135":-0.03745080324446537,"136":0.05677873669783473,"137":0.1282539565578884}},"15":{"bias":-0.08597798833220889,"weights":{"0":0.1584704729945587,"1":-0.029978238995868475,"2":-0.10147789735118284,"3":0.1777393996295909,"4":-0.17069766114116833,"5":-0.030882206534231932,"6":-0.053776618528296904,"7":-0.04388625590956491,"8":-0.17905411658654896,"9":0.03915948472222555,"10":-0.19329827109324837,"11":-0.13431495446828104,"12":-0.15631166278003522,"13":-0.19302707051273257,"14":-0.13633276195431768,"15":-0.10018860778175576,"16":0.15625389712371318,"17":-0.07230507982333753,"18":-0.13631168999934654,"19":-0.12691152828941182,"20":0.18423837051361336,"21":0.15357560867714953,"22":-0.08507993878312742,"23":-0.14596449325458682,"24":-0.10728443346803723,"25":0.06862513590728803,"26":-0.18824715409960976,"27":0.11724197956745239,"28":-0.03829972128825579,"29":-0.17683437240070857,"30":-0.1558077087468934,"31":0.1299590328217282,"32":-0.11058161391355623,"33":-0.08812396097581168,"34":0.11546996347013166,"35":-0.14312912846015627,"36":0.05431666717504635,"37":0.15688592949335922,"38":-0.1352994010382524,"39":0.18032453945625682,"40":0.14381908406538724,"41":-0.024653028563711488,"42":-0.1635703330235952,"43":-0.05096400514239363,"44":0.16376059757977857,"45":0.1695852943666991,"46":-0.1143273669429294,"47":0.15077598328915204,"48":0.1380304721450794,"49":-0.1748749384834345,"50":-0.14957027497314146,"51":0.13379096856900258,"52":-0.17101657526301964,"53":-0.1456671732955239,"54":0.05830820355827787,"55":0.0467733903561543,"56":-0.040539012691913345,"57":0.10744338033205852,"58":0.12962014999990162,"59":0.1147130839330665,"60":-0.04052894383262187,"61":-0.058986223493175255,"62":-0.08407579229056097,"63":0.10058827714168811,"64":-0.15614967863582124,"65":0.06489354651482981,"66":0.13783122385614277,"67":0.04219740166156197,"68":-0.1796251880547285,"69":-0.0536724017000319,"70":-0.03749036107055501,"71":0.07426549704416513,"72":-0.21902500336217162,"73":-0.12756738735295273,"74":-0.1566198797278763,"75":0.129345262112734,"76":-0.19498862915637974,"77":-0.12448329973665802,"78":-0.0023942793346834468,"79":-0.13835706111481755,"80":-0.058890001052408186,"81":-0.07562884615133464,"82":0.12331256213248615,"83":-0.056272655785429226,"84":0.06652684997799801,"85":0.061582606434959275,"86":0.009647537798713829,"87":-0.09518176865205517,"88":-0.14789638077701614,"89":-0.15939403632379723,"90":0.003779770221585016,"91":0.04656919452758784,"92":0.13438595775712975,"93":0.11177680179774668,"94":0.06841524837033752,"95":-0.062198236554357855,"96":-0.15436228821443887,"97":-0.1669323523234094,"98":0.10856052632350999,"99":-0.11444304136886033,"100":-0.0388729006266737,"101":-0.16113546212974744,"102":0.1504350990533352,"103":-0.11733477972054943,"104":-0.04278392503060546,"105":0.0013381457340995162,"106":-0.19176959486756015,"107":-0.01990990255207975,"108":0.05137408855607645,"109":0.0524577298390656,"110":0.06853001403861131,"111":0.1856817696973071,"112":0.12417738576945142,"113":0.16996923197550534,"114":-0.11805625366661002,"115":-0.15782452904163602,"116":-0.057162355210636395,"117":-0.10093846345946203,"118":-0.15021246649399408,"119":-0.01622750044471105,"120":-0.008663611832596091,"121":0.16626305935053587,"122":-0.16366218522759457,"123":-0.12537193128687918,"124":0.015591129497828232,"125":0.1280573591365971,"126":-0.11229758545900347,"127":0.15847256576499513,"128":0.11072388403343797,"129":0.1546895028329171,"130":0.08961250369797036,"131":0.040260041122500756,"132":-0.17139592448537666,"133":-0.14878829314058173,"134":-0.14240689773411497,"135":-0.1864867208682866,"136":-0.15979626754736798,"137":-0.12819980657825925}},"16":{"bias":-0.11714983499926199,"weights":{"0":-0.11050722474269271,"1":0.01649004261315584,"2":-0.18915575080814012,"3":-0.12703021854287702,"4":0.07467663190531909,"5":-0.16596028504361843,"6":-0.1567242012066613,"7":0.1399291376375234,"8":-0.1997278803990713,"9":-0.027480472230979547,"10":-0.08320798261472735,"11":0.17335129044628056,"12":0.04371066294494269,"13":-0.11190432581861859,"14":0.11673866568898567,"15":-0.023288661887532675,"16":-0.06445368874714036,"17":0.154478452418137,"18":0.020646809713495362,"19":0.14416049406232023,"20":0.05827020877072242,"21":-0.03299232170089414,"22":-0.01868466504763075,"23":-0.0964286447606833,"24":0.1438699940211176,"25":0.17642321253188592,"26":0.10116803426960808,"27":0.15767728178195312,"28":-0.17974060754148435,"29":-0.17178368448186362,"30":0.12064910568145112,"31":0.09123548827813285,"32":0.029100502858505795,"33":0.17611323172284765,"34":-0.04590593113808222,"35":-0.13648642455772908,"36":-0.046385794989806856,"37":-0.0033709802100123087,"38":0.01727312003219658,"39":-0.05734313406974492,"40":0.030429374978633822,"41":0.04376896016480014,"42":-0.12690992858895092,"43":-0.09955989919827841,"44":-0.028071373682543393,"45":-0.02858754381613976,"46":-0.04701725837330298,"47":-0.022897934934597408,"48":0.18607048243192736,"49":0.11750842456228705,"50":-0.08206176010470562,"51":-0.13900426165508223,"52":-0.13101612613347208,"53":0.12611423514748193,"54":-0.015496989666598016,"55":-0.16542212672568796,"56":-0.08810067041986036,"57":0.07236115718056801,"58":-0.007069393585943107,"59":0.01125641897149432,"60":0.07375456064625635,"61":-0.18429949690479985,"62":-0.13560870732658703,"63":-0.1400996672614636,"64":-0.1911969667486071,"65":0.1207155281827183,"66":-0.004297843145526142,"67":0.117662851770449,"68":0.18397882812696525,"69":-0.11267028283456373,"70":-0.08600858983027213,"71":-0.1515988466039191,"72":-0.18447084753560286,"73":0.02264451543500978,"74":0.09324892055154316,"75":-0.06938382070808241,"76":-0.19759080923968605,"77":-0.15017907471361128,"78":0.0777665340468367,"79":0.09353085424006863,"80":-0.05144151863204974,"81":0.10298562553425655,"82":0.16910278535568724,"83":-0.13982418962717463,"84":0.10962830694054032,"85":-0.11579158556501623,"86":-0.17491200628924597,"87":-0.1465226497745909,"88":0.09634344117225979,"89":0.04514126632746454,"90":-0.08348090387104233,"91":0.08400649891428058,"92":0.07345223535123624,"93":-0.09185247182681318,"94":0.055293563069985896,"95":-0.14271013592160786,"96":-0.08445021935445274,"97":-0.06539024373799229,"98":-0.025862008999469305,"99":0.018405082704228526,"100":0.10194284356081823,"101":0.04268060285556982,"102":-0.017438115005356192,"103":-0.18187666206287584,"104":0.10976132423864976,"105":0.10351920263099545,"106":-0.12372489670257868,"107":-0.1722031990771985,"108":-0.06712099497623969,"109":0.18843476573410717,"110":-0.18760998682935937,"111":0.06526634619651733,"112":0.1880454175926291,"113":-0.11431637274198368,"114":-0.15709605938427124,"115":0.0547801621706302,"116":0.19196125519187696,"117":0.033345118889424874,"118":-0.06806653562414641,"119":-0.18423898984164566,"120":0.1706864322611873,"121":-0.14666594261993932,"122":-0.1234407115866893,"123":0.09576308857776528,"124":-0.01389889304460884,"125":0.03534346182558873,"126":-0.13325915613314923,"127":-0.11687113710607688,"128":-0.053402384007241205,"129":-0.049480961582866634,"130":0.17658757131179448,"131":-0.05514751387014441,"132":0.08607908345363208,"133":-0.04248194408569467,"134":-0.16041042503576952,"135":0.1537954478380179,"136":0.19123411047019062,"137":-0.13710932993628094}},"17":{"bias":-0.04481569350981167,"weights":{"0":0.18192999146909322,"1":0.036760754251747796,"2":0.03183564221159368,"3":-0.090368855716984,"4":-0.19204424868843814,"5":0.0016524442240905546,"6":0.015786597440879374,"7":-0.041191368959239305,"8":0.010115058536491167,"9":0.1717083834449027,"10":0.021769223417511446,"11":0.03986659207669377,"12":-0.14796689830259116,"13":0.06879349340825869,"14":0.05269480195596615,"15":-0.06535807246387923,"16":-0.16048300860004777,"17":0.07923689196365336,"18":-0.03796668946182907,"19":-0.08112756788641651,"20":-0.18227756793142486,"21":-0.15374132961471673,"22":0.14011686904342774,"23":-0.1687441012517703,"24":0.08743202632596947,"25":0.07979412377945116,"26":0.026742391258716858,"27":-0.13288664262061656,"28":-0.07132215759402792,"29":-0.059552780226450414,"30":0.03622230678515151,"31":0.10548614711559312,"32":-0.11345342191683593,"33":0.07821012670645844,"34":-0.19828730066222003,"35":0.07118536893542204,"36":0.027630137663249954,"37":-0.15125137470184866,"38":0.16595077044582357,"39":0.10176381832242115,"40":-0.021664791676539952,"41":-0.16922303986538367,"42":0.053462315045752884,"43":-0.1600526472130441,"44":-0.14071899922039047,"45":-0.1707891939521149,"46":-0.08383502211610622,"47":0.030864456161834586,"48":-0.05080591316802288,"49":0.17939405810443337,"50":-0.12528088871878662,"51":0.024717785997802805,"52":0.06639458293939693,"53":0.09221228897340561,"54":0.05895795281538907,"55":0.12822365895961296,"56":0.0304412526927873,"57":-0.01620651965887837,"58":-0.1933944277870192,"59":-0.17179810930083167,"60":0.08320872009668878,"61":-0.1348852408721461,"62":0.1091616481545038,"63":0.023155286375142387,"64":0.09278335326054743,"65":-0.1503320162854762,"66":-0.08184109410076923,"67":-0.006783362583036384,"68":-0.15374102191074882,"69":-0.03659907689232328,"70":0.15756772923826207,"71":-0.08267221954779047,"72":0.0543951950893255,"73":-0.08389316848829026,"74":0.10935454853548354,"75":-0.07194014577111299,"76":-0.016876939426713033,"77":0.05258572139745288,"78":-0.025503956160710134,"79":0.002400024919487015,"80":0.022419380885047857,"81":-0.07200371084483423,"82":0.06779226520067416,"83":-0.01174258489516039,"84":0.03863162051223029,"85":-0.1996164263115758,"86":0.04901503489300882,"87":-0.08204941200970267,"88":-0.14626486370861988,"89":-0.18331823004468692,"90":-0.001431974661983304,"91":-0.18241918886257463,"92":0.19308549915103201,"93":-0.18964939285781723,"94":-0.17819170934878692,"95":-0.10647197677222496,"96":-0.12486824949880902,"97":-0.14747380736344004,"98":0.03815506054471954,"99":-0.050845506922214595,"100":-0.18992065125243515,"101":-0.06372827573946857,"102":0.08072461544793874,"103":0.1637367038065377,"104":-0.005197650080470767,"105":0.09516805789455651,"106":-0.15684177318574904,"107":0.15976997426804163,"108":0.12016245560367622,"109":0.0685119373613251,"110":-0.06902635659516862,"111":-0.0024824940523300865,"112":0.07203113960575858,"113":0.07307803532042856,"114":-0.09988848097286783,"115":0.18865638327143686,"116":0.0008753914880309799,"117":0.0365696404932197,"118":-0.015396763184683693,"119":0.18143033583380996,"120":0.1587056868226801,"121":0.06716896148404111,"122":0.08658823648315411,"123":0.10272983148962761,"124":-0.06338345054122191,"125":-0.16385929556823867,"126":-0.11627643245582844,"127":-0.06658624435299326,"128":-0.12166714873493714,"129":-0.17167769546523381,"130":0.11345187184803346,"131":0.012349882079004088,"132":-0.10131023004101457,"133":-0.19731778129248845,"134":0.011107311671693043,"135":-0.1938533071612085,"136":0.001053666546369042,"137":0.15023711198018336}},"18":{"bias":0.049653588954442954,"weights":{"0":-0.015811618931104575,"1":-0.027127687656966142,"2":-0.035991207738827316,"3":0.1555562898787945,"4":-0.0504702157253136,"5":-0.05268498154910742,"6":-0.05366605004235589,"7":-0.13788842789149083,"8":0.09427957180948993,"9":-0.0887012616772795,"10":-0.03945124948165474,"11":0.13222885955992675,"12":-0.08140865036051102,"13":0.14861147474996933,"14":0.04944638978655602,"15":-0.04662548981294776,"16":0.00001527001350787316,"17":0.07639825011925516,"18":0.06844127273560374,"19":-0.03764024111010561,"20":0.03633341134797438,"21":-0.05130777003046516,"22":0.0842401414142474,"23":0.008426269964782851,"24":-0.17876845563941146,"25":-0.08416730193462536,"26":-0.15291324313725438,"27":0.20297145625207783,"28":0.07737368696992372,"29":0.08420742441360066,"30":-0.17797504902004346,"31":-0.12345796145419782,"32":-0.09198370916255662,"33":-0.03186143469475003,"34":-0.0004665931036225146,"35":-0.11286879255617342,"36":0.15660935299309842,"37":0.10795001806043869,"38":-0.1832994269653767,"39":-0.06339969820822092,"40":0.020075643098099144,"41":-0.04725436737828542,"42":0.16167839305081194,"43":-0.0068266887148574484,"44":0.04951772498582044,"45":0.12597595733479833,"46":-0.014730866386641145,"47":-0.16364104385501532,"48":0.047435809058932854,"49":0.10584980276188016,"50":0.11892827861195471,"51":0.13881425014044607,"52":0.12698954506444837,"53":-0.04641616479787131,"54":-0.19311571978095954,"55":-0.10309289112087035,"56":-0.037071592604339454,"57":-0.16987714036049617,"58":-0.03180784061697875,"59":-0.15028949176250253,"60":-0.012253557212124205,"61":0.02806982325438029,"62":-0.09771686911910625,"63":0.13357717483231996,"64":0.03906917500309123,"65":0.0495207715010805,"66":0.1727541856910026,"67":0.067007321668555,"68":0.15968223705301776,"69":0.12605097781191316,"70":-0.06479062632774782,"71":0.1862688569775811,"72":-0.09367657156468909,"73":0.06043957117075331,"74":0.0962811393418826,"75":-0.11243080658193386,"76":-0.009443045272220812,"77":0.04772308516493062,"78":0.16586488200016536,"79":0.02059251774334933,"80":-0.05794259750285047,"81":0.047110315933592606,"82":-0.008355174791688735,"83":0.05867144015798609,"84":0.15988055560995262,"85":0.14267323763886913,"86":-0.12404721531690166,"87":0.044078266673387045,"88":-0.03459901789782177,"89":0.07393855490824502,"90":-0.0270091487086887,"91":0.11669607432546253,"92":0.0700171149479133,"93":0.06298624124522761,"94":0.07518798870180776,"95":0.09113909182673241,"96":0.1410465798865969,"97":0.03002631767282979,"98":0.18368064095681486,"99":-0.10345086553177651,"100":-0.13094014795476455,"101":0.013559461571715392,"102":-0.1465343406973874,"103":0.15769065186639736,"104":0.08131951916824204,"105":-0.02043741721975359,"106":0.11355156460245425,"107":0.011254509004803903,"108":-0.15025569969668962,"109":-0.0869233581847456,"110":-0.15349145313025253,"111":-0.016423769562795953,"112":-0.0546235078740904,"113":-0.07625486456336478,"114":0.033687578402532725,"115":0.055485814461504634,"116":-0.05354133596936689,"117":0.03538145481457616,"118":-0.06663007030278897,"119":-0.06615688241637355,"120":0.03874323863171486,"121":-0.0021055828953159827,"122":-0.1257874217257558,"123":-0.05973413748829018,"124":-0.12657227474419236,"125":0.19946025313945936,"126":0.11334810319770167,"127":-0.04158843338506185,"128":-0.12826711254255718,"129":-0.0441887574935369,"130":0.19255548773485193,"131":-0.010736279993908943,"132":-0.13978618735001538,"133":0.18690825976955944,"134":0.044915357457209815,"135":-0.07735604756341835,"136":-0.16374816429031194,"137":0.05432267683535058}},"19":{"bias":-0.13292263577370375,"weights":{"0":0.07239817669830681,"1":-0.047414374193351934,"2":-0.05624997867223675,"3":-0.07152937031905945,"4":-0.13193403930435155,"5":-0.03616229520542644,"6":0.17746369089067582,"7":0.03736682134767025,"8":0.17130369219064495,"9":0.1278544193854188,"10":-0.14341729845374138,"11":0.03861094955141109,"12":-0.15317637344762655,"13":0.003643179706845412,"14":-0.15780933897240576,"15":-0.08589352680038882,"16":0.07530429395093396,"17":-0.17775671023499673,"18":0.08659804217030109,"19":-0.03961264165524209,"20":-0.12288115002348175,"21":-0.04923426862134636,"22":-0.004318023842262958,"23":0.1810949912295124,"24":0.07317208159810729,"25":-0.07929306907731348,"26":0.0697555582257493,"27":-0.016438269981926663,"28":0.13319864314436025,"29":-0.15721062113371512,"30":0.16976807907744895,"31":0.08712787682696911,"32":0.1380385403196181,"33":-0.007688026661106129,"34":-0.1709027970213268,"35":-0.06908046104965981,"36":0.11600565946689095,"37":0.1044461864584757,"38":0.1333355833081215,"39":0.023679279048412827,"40":-0.011361491844168625,"41":0.09941500860977309,"42":-0.04971566734698926,"43":0.19581688228907906,"44":0.004069324970059102,"45":-0.1708255536053999,"46":0.1508573926848074,"47":-0.001037891535641211,"48":0.030824283422293597,"49":0.08447941335034931,"50":-0.03459404607903843,"51":-0.04198080552268105,"52":-0.15470351908570257,"53":-0.10004170025103348,"54":0.19122002930180887,"55":-0.02828916367077508,"56":0.02209876916820369,"57":-0.09664358502629984,"58":-0.08992824897370273,"59":-0.0517501062267578,"60":0.19065720452010576,"61":0.07081026298054943,"62":-0.11030304466135209,"63":-0.11731627536029637,"64":-0.08270781996322452,"65":-0.18702676007487043,"66":-0.16238666920066774,"67":0.18145919446127995,"68":-0.0019352618551364276,"69":-0.09793070093858916,"70":-0.03609871845531693,"71":0.0013334774753025519,"72":0.03518031467568671,"73":0.1770172125700686,"74":-0.07633929460946282,"75":0.10320090540304083,"76":-0.12384401559803085,"77":-0.053416923940985045,"78":-0.1423055287904969,"79":-0.0992497218512317,"80":-0.0575258831485094,"81":-0.07745168675806458,"82":-0.095558187523923,"83":-0.09580215453059804,"84":-0.10880130412987361,"85":0.049078505384479415,"86":0.13329803030783732,"87":-0.1238094814183774,"88":0.0020349778873405278,"89":-0.06227732131334812,"90":-0.18947386348067294,"91":0.047957846879943755,"92":-0.08607858599989866,"93":-0.0034861661648361297,"94":-0.1754533219425891,"95":-0.13733404064010912,"96":0.151770796274033,"97":-0.09045989755022231,"98":0.072430808787528,"99":0.19992940552416155,"100":0.0779551331428478,"101":0.01932430971753396,"102":-0.1567286371915767,"103":-0.14202925154912852,"104":0.1173350214242645,"105":-0.04930755115733029,"106":0.11230737275189812,"107":-0.0967720578019593,"108":-0.02307514985774972,"109":0.1795579593641305,"110":-0.06682004040253828,"111":-0.16395188664067303,"112":-0.18887768217735337,"113":0.11960059918680116,"114":0.06936077889089975,"115":0.0006510442949814177,"116":-0.1419601603794651,"117":0.11924003429084212,"118":0.13866020097527837,"119":-0.023955278659252233,"120":0.08898411282201629,"121":-0.1813341974198588,"122":-0.19530251864510895,"123":0.1677687671958274,"124":0.17808499487459034,"125":0.1898128484414941,"126":-0.187545299394413,"127":0.1830186433626797,"128":-0.05238563204752672,"129":-0.13729468579902288,"130":0.12966904876042495,"131":0.07173810080577142,"132":-0.1977378823672,"133":0.031169641088852007,"134":0.17861001326433662,"135":0.05511755178298994,"136":0.07363991691640426,"137":0.07789509906307429}},"20":{"bias":0.02582729139727384,"weights":{"0":-0.15358985039105585,"1":-0.1643130367889553,"2":0.09235625398006149,"3":-0.1930904576107013,"4":0.020273159515050654,"5":-0.15311964487211327,"6":-0.09175077405627619,"7":0.042429470174238204,"8":0.13367145014013754,"9":0.030745152856901548,"10":0.03349243633922788,"11":-0.16970982192392486,"12":0.13889401717047234,"13":0.011237251408564741,"14":0.0005609887480565179,"15":-0.036880991598499335,"16":0.06528814988164972,"17":-0.1335530567434433,"18":-0.04290373770232528,"19":-0.03330120729946823,"20":-0.1796293278774549,"21":-0.04265984528764824,"22":-0.027470059167214428,"23":0.04612829904284865,"24":0.006005259599895479,"25":0.1098351071245664,"26":-0.06990885846199477,"27":0.07489402326409565,"28":-0.037343541187543426,"29":-0.02046220883825581,"30":-0.006230893502242484,"31":0.18578534995322307,"32":0.11516236948631474,"33":0.0601677762398477,"34":0.0504159102235735,"35":0.18918776553882505,"36":0.1626323429612544,"37":0.09052597406287788,"38":0.06971045189896125,"39":-0.018892979678935523,"40":0.18362987854883406,"41":0.08931573487488531,"42":-0.0450811686652301,"43":-0.12936485010962953,"44":-0.18569056283598828,"45":-0.19100257132004916,"46":0.17310028128938354,"47":-0.14217380829022935,"48":0.1630647914569638,"49":-0.11360595976007817,"50":0.18766601867521393,"51":-0.11647017154041334,"52":0.17614186904456391,"53":-0.10340058772308983,"54":-0.0902239806873979,"55":0.19805071186127554,"56":0.017772207175490884,"57":0.06055387918497146,"58":0.11231444731503853,"59":0.11754393200308216,"60":-0.17539749370044905,"61":-0.19756845586645655,"62":0.07664691286823988,"63":0.11306438049219242,"64":0.13298357536730726,"65":0.18212294409273638,"66":0.039683704439709644,"67":0.04355773686075856,"68":-0.028252099025420113,"69":0.07187333660329537,"70":-0.17420533396954752,"71":0.1514881526069545,"72":-0.18706440691421905,"73":-0.017902621026109396,"74":0.05725654298813965,"75":-0.11717037938251273,"76":-0.18002059433060147,"77":-0.06547963540726345,"78":0.19262757148881454,"79":0.14905275201128226,"80":-0.06092136744910395,"81":-0.0974430425901689,"82":0.19612414332110417,"83":-0.17276574777904488,"84":-0.1358685598401232,"85":-0.07606521891779537,"86":-0.06825313015770523,"87":0.06547339448493206,"88":0.05257501094990297,"89":-0.08229794840030139,"90":-0.16677897322850488,"91":-0.0038193554444362066,"92":0.13555066858067794,"93":-0.12915209200309308,"94":-0.0003718211029130336,"95":0.010757102354226777,"96":-0.017320081850511565,"97":0.12356477343672445,"98":0.09738062946877984,"99":0.04243296601866167,"100":-0.033123436464895295,"101":-0.15159607778051765,"102":0.19608251720165504,"103":-0.18522869054316288,"104":0.16420320874037303,"105":-0.14183327174644697,"106":0.08602974429201382,"107":0.06910086283768824,"108":-0.0030939350691863154,"109":0.18262361832696783,"110":0.15281704402219287,"111":-0.15160294400997573,"112":-0.15084424689370302,"113":-0.0969722635252527,"114":0.02130205852817646,"115":-0.03001562969878746,"116":0.01760960485017532,"117":0.1814686697597187,"118":-0.10457510065816811,"119":-0.11318149332528576,"120":0.16420281803806197,"121":-0.186326099793937,"122":0.0386292261420092,"123":-0.16681039363002015,"124":0.037532382226755256,"125":-0.1269550497650488,"126":0.03299741860412003,"127":-0.13675802541316184,"128":0.03455830641362265,"129":-0.013189423095513853,"130":-0.05050141706730696,"131":0.043145193293477574,"132":0.09982965011695316,"133":-0.19880899728767798,"134":-0.18179892598978437,"135":0.08548134461831969,"136":0.028815945149712696,"137":0.1913631854739702}},"21":{"bias":0.18801063034579446,"weights":{"0":-0.1194397464668397,"1":0.007144210074984737,"2":-0.0814305937215415,"3":-0.06496517313788958,"4":-0.042026073092105876,"5":-0.07376145066687947,"6":0.13492449674204793,"7":0.030892035373050408,"8":-0.16574460817249248,"9":-0.09048312872753864,"10":-0.09175133997451193,"11":0.023585293444288696,"12":-0.08901453176891226,"13":0.11938681304980053,"14":0.14495178232123695,"15":-0.09690159822712774,"16":0.15160110099090568,"17":-0.12400544041503539,"18":-0.1740863446313199,"19":-0.12964731596910462,"20":0.013812319467549822,"21":-0.1360699034325256,"22":-0.0424161556205192,"23":0.1243011656525006,"24":0.19689897479083623,"25":-0.17627691698986575,"26":-0.11822728755928208,"27":-0.07567486892277836,"28":-0.16473842509121203,"29":-0.09915059443866939,"30":-0.03961343479024635,"31":0.004387508148212197,"32":0.04315239585479932,"33":0.025989221705596144,"34":-0.17326945588207812,"35":0.17786700979792675,"36":0.05270105028149147,"37":0.16985508132964772,"38":-0.17415508831657656,"39":0.16305093009306226,"40":-0.01973603500890367,"41":-0.12956708048792978,"42":0.0432765899536281,"43":-0.15781934848642384,"44":0.037620882684525625,"45":0.03882871155265058,"46":0.09509341503054863,"47":-0.19704366342619384,"48":-0.00349870741488037,"49":0.1280496451846016,"50":0.10029785388782936,"51":0.12110930102905426,"52":0.1277673888816816,"53":0.1663074071427066,"54":-0.0842334667745929,"55":-0.11927168003528027,"56":0.18681086970961414,"57":0.060924150062893756,"58":-0.052431312490335474,"59":-0.03158888655150377,"60":-0.12649190418531353,"61":0.16001081955810825,"62":0.17532676266928499,"63":-0.01457751174129357,"64":0.1653116402639871,"65":0.06209624300905192,"66":-0.17904881533403583,"67":-0.07174491460474641,"68":0.027667775426593627,"69":-0.18075421720269524,"70":-0.08144884141485327,"71":-0.1770902884801699,"72":-0.13205178492779418,"73":0.11799313342240407,"74":-0.07938318661471273,"75":-0.19007060109864382,"76":0.1275259538686072,"77":-0.1275639191974003,"78":0.03922377961112017,"79":0.10998474092394439,"80":0.17025102281110122,"81":0.07707432030551564,"82":0.1971319635489297,"83":-0.15017060232774188,"84":0.14402214531064667,"85":0.12923140455890997,"86":-0.07500609506473782,"87":-0.06186834975219027,"88":-0.04162443314338385,"89":0.1948875037961954,"90":-0.15444467197486011,"91":-0.05454508081060938,"92":-0.009686277591667902,"93":0.00007102114047191632,"94":-0.16443329150088878,"95":0.07744808086815153,"96":0.10808812139915702,"97":-0.021956032382164897,"98":0.1400497409852216,"99":-0.06042137047086457,"100":-0.013104104448114023,"101":-0.1903839040990346,"102":-0.17067921317120113,"103":-0.19119177285528535,"104":-0.06596857926948285,"105":0.15558522045310375,"106":-0.10810907781800579,"107":0.06224416180762349,"108":-0.010103891677180066,"109":-0.04592974548279463,"110":0.05806120753025379,"111":0.030663141978733044,"112":-0.1773207715964188,"113":-0.05217813737773733,"114":-0.009989099699445447,"115":0.047411032443979456,"116":0.15012577724250786,"117":0.12861863120637107,"118":0.06698457145181347,"119":-0.08417184675803267,"120":-0.060541691011249926,"121":0.15035152186048073,"122":-0.15642348819542448,"123":-0.01713224792299109,"124":-0.1461777576140083,"125":-0.16030095410525808,"126":0.1553210211420692,"127":0.14107541771620974,"128":-0.03531087285200191,"129":-0.1632853721143664,"130":-0.020096004030088543,"131":0.15166085196767493,"132":0.02781338037483483,"133":-0.021092951273322585,"134":-0.19993682593938616,"135":-0.13288152847695658,"136":-0.09362453902138146,"137":-0.18094730087819474}},"22":{"bias":-0.16245606750447242,"weights":{"0":-0.03876664825673533,"1":0.1822603963270374,"2":0.13699794390921533,"3":0.07426237078232872,"4":0.0931675363622485,"5":0.19007654544434377,"6":0.08640005605983331,"7":0.12287015143401164,"8":-0.14503803393384454,"9":0.1892761986911226,"10":-0.06797897846174861,"11":-0.04779419806115487,"12":-0.06975818663191324,"13":-0.0908626148228847,"14":-0.1815181547141541,"15":-0.06277678906069256,"16":-0.07375473878511923,"17":-0.1998120738148268,"18":0.18737877527315422,"19":-0.1646233136536699,"20":-0.008632786020364241,"21":-0.051715421249247495,"22":0.1404260163657584,"23":-0.1743241486103969,"24":-0.03600496778934445,"25":-0.1964329865442437,"26":-0.06414111927834432,"27":0.13645252867688376,"28":-0.08921286263058284,"29":0.0004365862267698599,"30":-0.16646840199193647,"31":0.017012607549909624,"32":-0.1295191453586099,"33":-0.18228328705313404,"34":0.04677663866310472,"35":-0.02905917863121496,"36":-0.16625496149310212,"37":-0.07860750595319735,"38":0.06527973599968495,"39":-0.04046569917546111,"40":-0.010260761756179182,"41":-0.11948566903391972,"42":0.12652462285347355,"43":-0.16255137762507188,"44":-0.06337356804061153,"45":-0.12116824022898616,"46":-0.16329988209834828,"47":0.015619917274724227,"48":0.17683747623448226,"49":0.15771906358978205,"50":-0.06814411292030906,"51":-0.03439202670975208,"52":0.15962247646241295,"53":-0.12346509416450938,"54":-0.1656683057485119,"55":-0.05802695262448143,"56":0.04160463389767255,"57":0.19941545727314508,"58":-0.12286595468859494,"59":0.10664698532706424,"60":0.04520940808852866,"61":0.05925442841220052,"62":-0.07097926534123486,"63":0.15871373018789736,"64":-0.16927168365258521,"65":0.021983415351169378,"66":-0.08198006922609968,"67":0.07588683114178735,"68":-0.11458855789138252,"69":-0.07705527402984327,"70":0.03823130260066644,"71":0.12150422744050764,"72":0.02981076043073137,"73":0.012366724445097715,"74":-0.1651302874058966,"75":-0.08085416347699602,"76":-0.1272918123656484,"77":-0.03587653208625535,"78":0.08076732316443458,"79":-0.16386500975089993,"80":0.19518180490688158,"81":0.08440686160211186,"82":-0.030084589906093917,"83":0.06873889459459265,"84":0.009517612471898668,"85":0.1534508729405653,"86":0.09407319522236463,"87":0.1996775322774746,"88":0.14423758385353297,"89":0.010985306281821483,"90":-0.0648762521102145,"91":-0.19537886243738234,"92":0.15169433778816427,"93":0.0802763316097872,"94":0.02017494611012402,"95":0.15388837012011258,"96":-0.129468470030501,"97":0.11764051893559113,"98":-0.04204908770195806,"99":-0.02994800374329093,"100":-0.15847866079477343,"101":0.11979054609239753,"102":-0.13954031933913155,"103":-0.06282153189567571,"104":-0.057597010723687087,"105":-0.13759655217209918,"106":0.09861059525804983,"107":-0.04208046549142913,"108":-0.10227443723907657,"109":-0.15918363271222224,"110":0.1669949448817845,"111":-0.1329381357178135,"112":-0.1410194212241881,"113":-0.11077509755911202,"114":-0.06356772197792868,"115":0.029137678549529145,"116":-0.17354446305459856,"117":-0.05963588231158462,"118":0.16708226703264256,"119":0.05327632674606242,"120":0.0950509049902295,"121":0.17344406532101692,"122":0.13621328419175088,"123":0.022918482595019996,"124":-0.16973510857865098,"125":0.023458579612460173,"126":-0.011658095063588114,"127":0.008884736439675411,"128":-0.08095647103756187,"129":0.06558108995170675,"130":-0.023854640727176413,"131":-0.013562098287797586,"132":-0.07014171104997555,"133":-0.11018608066277996,"134":0.19117536097724858,"135":-0.04596436851859628,"136":0.09179088250731571,"137":-0.07525725318157983}},"23":{"bias":-0.08130540549033119,"weights":{"0":0.20201847022247355,"1":-0.14481387532573037,"2":0.18900917631345815,"3":-0.14183175930678873,"4":0.02805509313452842,"5":-0.06718600188237733,"6":-0.0743141380285291,"7":-0.0063797703854786,"8":0.049212962125390364,"9":-0.18278312214604064,"10":0.19329378934042002,"11":0.024310607427465408,"12":-0.026528114677790704,"13":-0.10530892101205103,"14":-0.09361846169907509,"15":-0.02918297834245437,"16":0.17616636228342247,"17":0.1704732227617563,"18":-0.12504555249853846,"19":-0.11430301533158414,"20":-0.091103923392392,"21":-0.16253710801498641,"22":0.16273382200646874,"23":0.11810293067305361,"24":-0.15995143458236669,"25":-0.13093270440858742,"26":0.02621838482172753,"27":-0.16038283928759217,"28":-0.007811035119818811,"29":0.033594064538669005,"30":0.011954361731930211,"31":-0.09043767675749853,"32":0.150106319112154,"33":0.009219358311108039,"34":-0.17318536504270574,"35":-0.039673514480459554,"36":0.1701509230914055,"37":-0.18510973296849267,"38":-0.0345437635733335,"39":0.10809382786493354,"40":0.10161016524352773,"41":-0.10332525974283496,"42":0.058333985364124596,"43":-0.17370138610984728,"44":-0.02295741584274183,"45":0.12421805580509054,"46":-0.0009195753835091192,"47":-0.03610166180252561,"48":-0.015697882262308033,"49":0.11599184277777069,"50":-0.14096542916846416,"51":0.06191247896004726,"52":0.05445600183014665,"53":0.10231386292237099,"54":0.18025010417943943,"55":0.0069243823263163695,"56":0.040778972688509635,"57":0.14519378181694104,"58":0.07097161555638853,"59":0.1730718182408732,"60":0.05402834997789985,"61":0.061281821765189703,"62":0.12955177098810539,"63":-0.17985735596681343,"64":-0.10383148192808128,"65":0.1928988831607898,"66":0.19611781806341083,"67":0.14008985278083214,"68":-0.17726621350724736,"69":0.16386901339202187,"70":-0.09828637296585357,"71":0.16161685286255867,"72":-0.051454287074914014,"73":0.18506155806312063,"74":0.12511840788941025,"75":0.18267174204102804,"76":-0.039189369911750205,"77":-0.05644426895222346,"78":-0.07695334423294842,"79":0.08595117863022095,"80":0.0272298780363876,"81":-0.09075892037003133,"82":0.15506578929197684,"83":0.1444954751485007,"84":-0.03082544447742519,"85":-0.11534732081694132,"86":0.040252353119810014,"87":-0.12948331419505604,"88":0.06916580373753944,"89":0.018888332932106344,"90":0.18221759310503405,"91":0.17733481139130236,"92":-0.05401369930356745,"93":0.15067560478741954,"94":-0.058003858958792176,"95":-0.18600472459077588,"96":-0.0190321991442417,"97":0.10928352446217676,"98":-0.19396811908345024,"99":0.14249536412683445,"100":0.0008682055799686117,"101":-0.06750319941060906,"102":-0.07596376044485337,"103":-0.1451024787265144,"104":-0.0006597676975628741,"105":0.1649859638685502,"106":-0.18047754561846618,"107":-0.0479850409404996,"108":0.15876577155736993,"109":-0.07076738777446048,"110":-0.14414344849247807,"111":-0.04935829956896062,"112":0.18845665496223962,"113":0.1317432030200374,"114":0.07251810063356184,"115":-0.14616850722296518,"116":0.05908513321805531,"117":0.08320093503268033,"118":-0.05473273695777109,"119":-0.04339326609688418,"120":-0.06024380551150807,"121":-0.09891822738684262,"122":-0.05122072839409322,"123":-0.15310635474118453,"124":0.18125006494308898,"125":-0.1501984195046755,"126":-0.04571386498771296,"127":0.10773737423735258,"128":-0.04297952691179044,"129":0.14279779212888227,"130":0.025437622189856957,"131":-0.15695622544692506,"132":0.01610956231614341,"133":0.11917732408512577,"134":-0.13843020752285176,"135":-0.021705003513802806,"136":-0.04061113084505069,"137":-0.16761408420991064}},"24":{"bias":-0.15435085193240256,"weights":{"0":-0.08981838982115493,"1":0.1483283966868104,"2":0.10605188744775897,"3":-0.1150769145792535,"4":0.020852468363059457,"5":-0.13081332027679382,"6":0.03641242794226632,"7":0.009019141333391545,"8":-0.17250218979935808,"9":0.14570573785981927,"10":-0.09980347920749653,"11":-0.04983502680465471,"12":-0.0759816619576129,"13":0.056023201181840065,"14":0.12409317440992357,"15":-0.1799939700416486,"16":-0.10162672970045383,"17":0.07175266828051807,"18":-0.035529569642350545,"19":0.1875514159555336,"20":-0.10117900577126307,"21":0.17840143966242084,"22":0.05999025857806073,"23":0.07339076823064528,"24":-0.18821396884853733,"25":-0.1287699299710915,"26":-0.12772796824808152,"27":0.016695995985074232,"28":-0.18551953984941638,"29":-0.15298060477292175,"30":0.01900415636813346,"31":-0.07820207077767628,"32":-0.1870645597792422,"33":0.18246287163299907,"34":0.15392733659513552,"35":0.05222469917682798,"36":0.096227168233884,"37":0.012258508046800731,"38":0.17696999932097807,"39":-0.12257817553767857,"40":-0.030483378936008526,"41":-0.1775385227342338,"42":0.15757182791336927,"43":0.15398096740219075,"44":0.012054275826188565,"45":0.0634887698238204,"46":-0.03128431828399697,"47":-0.04334854501924407,"48":0.035942323200296944,"49":0.021852368560778934,"50":-0.1500716644889969,"51":-0.15973036515774963,"52":0.15152310875449432,"53":0.042200885480903866,"54":0.01161771791173516,"55":0.022155398991684117,"56":-0.18696236514468856,"57":-0.15384968290305467,"58":0.08358066706827733,"59":-0.003238289164984115,"60":0.06306372299196317,"61":-0.1621348356180982,"62":-0.05815005758830774,"63":0.10862867856280972,"64":0.19589795686272576,"65":-0.14961542418109064,"66":0.13532688829090012,"67":-0.1408232970981816,"68":0.032646358377486806,"69":0.1611772996807394,"70":-0.13935951718764372,"71":-0.08175367690430176,"72":-0.17901566641164016,"73":-0.08927991201326783,"74":-0.0755979094781063,"75":-0.18778786935559655,"76":0.1961221578067791,"77":-0.07817570676442448,"78":-0.08316178810396826,"79":0.18004769810005855,"80":0.01254087197242032,"81":-0.024832432188150483,"82":0.06687275029367379,"83":0.16316459516649856,"84":0.06023465704307068,"85":-0.06412293960304308,"86":0.02217698616483821,"87":0.06822402962617763,"88":0.15687555304675654,"89":0.14691415473310832,"90":0.1214912500475877,"91":0.14751243232917766,"92":-0.07886594693474294,"93":0.040264232797926625,"94":-0.17254546824613276,"95":-0.16123264426380501,"96":0.01925151490647589,"97":0.12831801327709952,"98":0.09828472798260596,"99":0.00696068255339935,"100":0.08795228319171117,"101":0.1672098322312005,"102":0.19957784834710773,"103":-0.1041158749306172,"104":-0.06782670188542994,"105":0.1486089750609229,"106":0.09857430833491349,"107":-0.04149129336827198,"108":0.10709481815921479,"109":-0.06557900879993214,"110":-0.03984868341165032,"111":0.12263644834714338,"112":-0.010490702549820263,"113":0.18472441319741134,"114":-0.1805562706660159,"115":0.13135720509997012,"116":-0.15651906335377028,"117":0.15837386805036086,"118":-0.1114214143388832,"119":-0.03625688208194955,"120":-0.11351146590784565,"121":0.062494984962816136,"122":-0.14491870128452053,"123":0.11268998105553607,"124":0.1312394715003249,"125":-0.09082640468979203,"126":0.05354376794471449,"127":0.07851318797784845,"128":0.11473490095470001,"129":-0.13262309643757553,"130":0.15244577044666924,"131":-0.17857973992631157,"132":0.014275188938045413,"133":0.04798713518339329,"134":-0.08522836123066098,"135":-0.0779966820473108,"136":-0.1014681922404554,"137":-0.1577432954805521}},"25":{"bias":0.16745659622441675,"weights":{"0":0.11978974306266664,"1":-0.10103557243747861,"2":-0.09769503578359831,"3":-0.003688930784629202,"4":-0.11235518087215679,"5":0.07276177203679779,"6":-0.0815421713844061,"7":0.030493930147317633,"8":-0.19925851065312125,"9":0.012259240313218456,"10":0.02948455341602499,"11":-0.08120061369614612,"12":-0.0239619299720375,"13":0.15060716701573423,"14":0.16214777351723902,"15":-0.1980816844961696,"16":0.034563327331481375,"17":-0.19975402862406488,"18":0.12733047521906377,"19":0.08654110302170637,"20":0.14294624679225187,"21":-0.02707741485325857,"22":-0.15877396676725333,"23":-0.19965451004462,"24":0.09646158978901553,"25":-0.07804997196195132,"26":0.07412385318659193,"27":-0.11678317615373456,"28":-0.10626909162421168,"29":-0.01563940780695163,"30":0.05923811417386623,"31":0.11260687664101589,"32":-0.17730639059908893,"33":-0.1340476001078154,"34":0.1538842774176432,"35":-0.04830958798289267,"36":-0.17963345399573863,"37":-0.10110634039057009,"38":0.13610894098186127,"39":-0.19094265069777744,"40":-0.02170220854880417,"41":0.18328573496657058,"42":0.06395290437686213,"43":-0.1622396273059212,"44":-0.1044474208399187,"45":-0.06134346449341904,"46":0.019706561282429286,"47":-0.13571572548455685,"48":-0.06369258309514098,"49":0.12293003209849979,"50":-0.02082581609259168,"51":-0.1736934450567585,"52":-0.06114929907982819,"53":0.18970744674416168,"54":0.05359940325863655,"55":-0.02687344963124652,"56":-0.03650615714158248,"57":-0.04722272527811064,"58":0.11885982135838874,"59":-0.07375021053133554,"60":0.16414000320126637,"61":0.14453214336758047,"62":0.14668083271568666,"63":-0.19139041920547123,"64":0.15890122907275578,"65":-0.06613695257546973,"66":-0.0237567902027232,"67":0.14175888413653798,"68":-0.13908856650404547,"69":0.14233182436185604,"70":-0.0960575357985643,"71":-0.028120568283517895,"72":0.004950249396574726,"73":0.1681644923733223,"74":-0.08653244436380998,"75":0.08957063665530274,"76":0.168898892420922,"77":-0.07586621568708551,"78":-0.070512905558616,"79":-0.14844773404351388,"80":-0.19391907286414645,"81":-0.07702215197761718,"82":0.15999436944812795,"83":-0.010620219093896127,"84":-0.19938838895947475,"85":-0.14571154719328644,"86":0.0457911837879382,"87":0.15222900357032493,"88":-0.147615723983046,"89":-0.1038773534416456,"90":0.014235620188497389,"91":0.12073576438228256,"92":-0.14083362322719176,"93":0.07067675171723825,"94":-0.039538462057312346,"95":-0.18409084466111977,"96":-0.05980805631543715,"97":-0.12200277633730644,"98":-0.046599982294985326,"99":0.09270943007449606,"100":0.11540377365482757,"101":-0.00381675114425023,"102":-0.1943061502951908,"103":0.1296692720535667,"104":0.15537157423376174,"105":0.18874892503335156,"106":0.026691220699261636,"107":0.03411107787092851,"108":0.033613660643593335,"109":0.02025363773929101,"110":-0.06947642103709581,"111":0.0447607835837589,"112":-0.18973635236281305,"113":0.013684946541418525,"114":-0.1606021118873965,"115":-0.04133603880717027,"116":-0.09537215075982415,"117":0.01879584166709103,"118":0.17348677588814843,"119":0.19175036365981385,"120":0.018579845368601522,"121":0.060343655264924745,"122":0.1547646192147723,"123":0.11753371742144808,"124":0.05613883707038242,"125":0.013704237513200657,"126":0.061979712817664345,"127":0.13259981733827608,"128":0.10463980240570275,"129":0.12910152020696775,"130":-0.03320484505809826,"131":0.19969862376955033,"132":0.04584903561492179,"133":0.16517636524952162,"134":-0.024012855859742194,"135":-0.18045900484587502,"136":0.07054977813805385,"137":-0.06586829886784767}},"26":{"bias":-0.16402133874931651,"weights":{"0":0.14961221065599412,"1":-0.18507658029329221,"2":-0.015111827995481207,"3":-0.05247593272575282,"4":-0.002672031898327626,"5":0.14869338243685998,"6":0.16230691532785768,"7":0.03511941825325532,"8":-0.07161700148459635,"9":0.09877373356741198,"10":0.053898682461854086,"11":-0.09940202854126962,"12":-0.021048824166652935,"13":-0.1016156645150165,"14":-0.006758364701794667,"15":0.02514112831268403,"16":-0.04394233411753942,"17":0.14663448754119973,"18":0.13113095215858278,"19":-0.19959164731451529,"20":-0.13886175162791475,"21":-0.0673717283730027,"22":0.07724621430389889,"23":0.18174775502050738,"24":-0.04600822262925286,"25":0.10522979235362179,"26":-0.1690255732547546,"27":-0.11261848209466338,"28":0.2046468753335303,"29":-0.12556539720690876,"30":-0.024126274938693754,"31":0.19855853754408634,"32":-0.03933514021388352,"33":0.18703426022730268,"34":0.07392529993937635,"35":-0.10237991820242068,"36":-0.17326014075486046,"37":0.028280793206362287,"38":-0.020425787984891114,"39":-0.0480103258803104,"40":0.14387573260884318,"41":0.062005761393151004,"42":0.11991000089314047,"43":-0.011067423452508052,"44":0.1248659994819587,"45":0.18557245644903747,"46":-0.09007464059687154,"47":-0.12859652644703673,"48":-0.02437358671566886,"49":-0.023526110830354774,"50":0.1423812446962628,"51":-0.07550612086383249,"52":0.023947232711735378,"53":-0.02822499605270315,"54":-0.13577627114268315,"55":0.015050419926346759,"56":-0.06158775796385002,"57":0.1141994464724812,"58":-0.017186117645238308,"59":0.02459140194518411,"60":-0.009822971403385061,"61":0.17071304264777432,"62":-0.17562047884947074,"63":0.10152007944287206,"64":0.025109488512443268,"65":-0.10482223280599845,"66":-0.04528084842778535,"67":-0.14816665882848304,"68":-0.1887083185126601,"69":-0.09392096375368225,"70":0.007055546714873316,"71":-0.128516796322785,"72":-0.10647550795493486,"73":-0.14609163454018684,"74":0.024435694067058478,"75":-0.0599177904246079,"76":0.18003047152709367,"77":-0.1776142880306103,"78":0.1602018470164503,"79":-0.18900841184956285,"80":-0.09660978830649372,"81":0.19050911680643473,"82":-0.09105189099310262,"83":0.11198689873184853,"84":-0.0055551534303635575,"85":0.12443832933330612,"86":-0.12184647947766757,"87":-0.10226236060792725,"88":0.005861688672631343,"89":0.14117653732217034,"90":-0.14796829481920773,"91":0.10688211936472619,"92":0.044183995607681936,"93":0.17844919486785465,"94":-0.16384216516868558,"95":-0.109777597344827,"96":0.1906195441955098,"97":0.1547732291102446,"98":0.08044904329713487,"99":-0.05580779948237585,"100":-0.17277763315826614,"101":0.07510237779167134,"102":0.15532065588733207,"103":-0.12994289302467454,"104":0.0881270202622012,"105":0.11343367006374522,"106":-0.12263829525195256,"107":-0.016646262446105897,"108":-0.16305312160539887,"109":-0.13956983502449205,"110":-0.025314432325280384,"111":0.10168779061869365,"112":-0.07824993117590467,"113":0.11309424168616594,"114":0.13569725109767727,"115":-0.06534870765672726,"116":-0.1894664031882882,"117":0.15092667639017415,"118":0.0750487881635909,"119":0.06387996109618532,"120":-0.17362031218400142,"121":0.04959526551004237,"122":0.0925212413252422,"123":0.0933173478467525,"124":0.034008768684636065,"125":0.15912079633429282,"126":0.008943607653111224,"127":-0.1302200106029236,"128":-0.06460391721767886,"129":0.16516753321030236,"130":-0.041584573062174,"131":-0.14651561915537903,"132":0.15510597572131452,"133":0.04693817434064301,"134":0.1213971229354151,"135":-0.18553439160450066,"136":0.07193806096465416,"137":-0.09905249883384687}},"27":{"bias":0.06468793795251922,"weights":{"0":0.179504675600934,"1":-0.19579791653457815,"2":0.11271188599096638,"3":0.03187633413839466,"4":0.11466469322354772,"5":-0.18625411132008987,"6":-0.1778419891901007,"7":0.03505571170245139,"8":0.01356425333589134,"9":0.05640841585530276,"10":0.07500207758341038,"11":0.13335129463057255,"12":-0.03456629202012032,"13":0.08817177359645784,"14":-0.1015204404039717,"15":-0.11133461921092112,"16":0.10435751916568964,"17":0.00841021557938157,"18":0.03550931466402804,"19":-0.14739822499492697,"20":-0.15501534173419726,"21":0.07083986165638179,"22":-0.0970933821610247,"23":0.06379532400814625,"24":0.15967972311455692,"25":-0.07834721425826237,"26":-0.0959921635409577,"27":0.136578620720823,"28":-0.058003908750325156,"29":-0.0651690030725884,"30":-0.10298746045870168,"31":-0.11217336988143382,"32":-0.11615360584875041,"33":0.05204564812774831,"34":-0.16669262282455374,"35":-0.07516739928357304,"36":0.13850524554465915,"37":-0.10705052991741103,"38":-0.042942379004157344,"39":0.13244422249601612,"40":-0.10434040728298344,"41":-0.09330143370296184,"42":-0.024416166086607405,"43":0.06948435307855394,"44":0.15928722818598112,"45":-0.07038158656886476,"46":0.025195508166648756,"47":-0.0063736562169485755,"48":0.14744701674256672,"49":0.04794214939759964,"50":-0.011782906250350222,"51":-0.02324022811835133,"52":-0.07286241775085411,"53":-0.10010663543146557,"54":-0.03776686149131994,"55":0.07126625553213228,"56":-0.025842814693292304,"57":0.025416664596111638,"58":0.16352323701140092,"59":-0.08526702325145381,"60":-0.053183748342044895,"61":-0.08341289900314806,"62":0.010638325317872066,"63":0.13157450445057645,"64":0.15195896290475386,"65":0.0655889572331746,"66":0.19307519020387176,"67":0.06988828858988344,"68":-0.042151395190163476,"69":-0.009522358358338229,